# ts bg_x bg_y bg_z ba_x ba_y ba_z
100180.010 0.000 0.000 0.000 0.000 0.000 0.000
100180.020 0.000 0.000 0.000 0.000 0.000 0.000
100180.030 0.000 0.000 0.000 0.000 0.000 0.000
100180.040 0.000 0.000 0.000 0.000 0.000 0.000
100180.050 0.000 0.000 0.000 0.000 0.000 0.000
100180.060 0.000 0.000 0.000 0.000 0.000 0.000
100180.070 0.000 0.000 0.000 0.000 0.000 0.000
100180.080 0.000 0.000 0.000 0.000 0.000 0.000
100180.090 0.000 0.000 0.000 0.000 0.000 0.000
100180.100 0.000 0.000 0.000 0.000 0.000 0.000
100180.110 0.000 0.000 0.000 0.000 0.000 0.000
100180.120 0.000 0.000 0.000 0.000 0.000 0.000
100180.130 0.000 0.000 0.000 0.000 0.000 0.000
100180.140 0.000 0.000 0.000 0.000 0.000 0.000
100180.150 0.000 0.000 0.000 0.000 0.000 0.000
100180.160 0.000 0.000 0.000 0.000 0.000 0.000
100180.170 0.000 0.000 0.000 0.000 0.000 0.000
100180.180 0.000 0.000 0.000 0.000 0.000 0.000
100180.190 0.000 0.000 0.000 0.000 0.000 0.000
100180.200 0.000 0.000 0.000 0.000 0.000 0.000
100180.210 0.000 0.000 0.000 0.000 0.000 0.000
100180.220 0.000 0.000 0.000 0.000 0.000 0.000
100180.230 0.000 0.000 0.000 0.000 0.000 0.000
100180.240 0.000 0.000 0.000 0.000 0.000 0.000
100180.250 0.000 0.000 0.000 0.000 0.000 0.000
100180.260 0.000 0.000 0.000 0.000 0.000 0.000
100180.270 0.000 0.000 0.000 0.000 0.000 0.000
100180.280 0.000 0.000 0.000 0.000 0.000 0.000
100180.290 0.000 0.000 0.000 0.000 0.000 0.000
100180.300 0.000 0.000 0.000 0.000 0.000 0.000
100180.310 0.000 0.000 0.000 0.000 0.000 0.000
100180.320 0.000 0.000 0.000 0.000 0.000 0.000
100180.330 0.000 0.000 0.000 0.000 0.000 0.000
100180.340 0.000 0.000 0.000 0.000 0.000 0.000
100180.350 0.000 0.000 0.000 0.000 0.000 0.000
100180.360 0.000 0.000 0.000 0.000 0.000 0.000
100180.370 0.000 0.000 0.000 0.000 0.000 0.000
100180.380 0.000 0.000 0.000 0.000 0.000 0.000
100180.390 0.000 0.000 0.000 0.000 0.000 0.000
100180.400 0.000 0.000 0.000 0.000 0.000 0.000
100180.410 0.000 0.000 0.000 0.000 0.000 0.000
100180.420 0.000 0.000 0.000 0.000 0.000 0.000
100180.430 0.000 0.000 0.000 0.000 0.000 0.000
100180.440 0.000 0.000 0.000 0.000 0.000 0.000
100180.450 0.000 0.000 0.000 0.000 0.000 0.000
100180.460 0.000 0.000 0.000 0.000 0.000 0.000
100180.470 0.000 0.000 0.000 0.000 0.000 0.000
100180.480 0.000 0.000 0.000 0.000 0.000 0.000
100180.490 0.000 0.000 0.000 0.000 0.000 0.000
100180.500 0.000 -0.000 0.000 0.000 0.000 -0.000
100180.510 0.000 -0.000 0.000 0.000 0.000 -0.000
100180.520 0.000 -0.000 0.000 0.000 0.000 -0.000
100180.530 0.000 -0.000 0.000 0.000 0.000 -0.000
100180.540 0.000 -0.000 0.000 0.000 0.000 -0.000
100180.550 -0.000 -0.000 -0.000 0.000 -0.000 -0.000
100180.560 -0.000 -0.000 -0.000 0.000 -0.000 -0.000
100180.570 -0.000 -0.000 -0.000 0.000 -0.000 -0.000
100180.580 -0.000 -0.000 -0.000 0.000 -0.000 -0.000
100180.590 -0.000 -0.000 -0.000 0.000 -0.000 -0.000
100180.600 -0.000 -0.000 -0.000 0.000 -0.000 -0.000
100180.610 -0.000 -0.000 -0.000 0.000 -0.000 -0.000
100180.620 -0.000 -0.000 -0.000 0.000 -0.000 -0.000
100180.630 -0.000 -0.000 -0.000 0.000 -0.000 -0.000
100180.640 -0.000 -0.000 -0.000 0.000 -0.000 -0.000
100180.650 0.000 -0.000 0.000 0.000 0.000 -0.000
100180.660 0.000 -0.000 0.000 0.000 0.000 -0.000
100180.670 0.000 -0.000 0.000 0.000 0.000 -0.000
100180.680 0.000 -0.000 0.000 0.000 0.000 -0.000
100180.690 0.000 -0.000 0.000 0.000 0.000 -0.000
100180.700 0.000 0.000 0.000 0.000 0.000 -0.000
100180.710 0.000 0.000 0.000 0.000 0.000 -0.000
100180.720 0.000 0.000 0.000 0.000 0.000 -0.000
100180.730 0.000 0.000 0.000 0.000 0.000 -0.000
100180.740 0.000 0.000 0.000 0.000 0.000 -0.000
100180.750 0.000 -0.000 0.000 0.000 0.000 -0.000
100180.760 0.000 -0.000 0.000 0.000 0.000 -0.000
100180.770 0.000 -0.000 0.000 0.000 0.000 -0.000
100180.780 0.000 -0.000 0.000 0.000 0.000 -0.000
100180.790 0.000 -0.000 0.000 0.000 0.000 -0.000
100180.800 -0.000 -0.000 0.000 0.000 0.000 -0.000
100180.810 -0.000 -0.000 0.000 0.000 0.000 -0.000
100180.820 -0.000 -0.000 0.000 0.000 0.000 -0.000
100180.830 -0.000 -0.000 0.000 0.000 0.000 -0.000
100180.840 -0.000 -0.000 0.000 0.000 0.000 -0.000
100180.850 -0.000 -0.000 -0.000 0.000 -0.000 -0.000
100180.860 -0.000 -0.000 -0.000 0.000 -0.000 -0.000
100180.870 -0.000 -0.000 -0.000 0.000 -0.000 -0.000
100180.880 -0.000 -0.000 -0.000 0.000 -0.000 -0.000
100180.890 -0.000 -0.000 -0.000 0.000 -0.000 -0.000
100180.900 -0.000 -0.000 -0.000 0.000 -0.000 -0.000
100180.910 -0.000 -0.000 -0.000 0.000 -0.000 -0.000
100180.920 -0.000 -0.000 -0.000 0.000 -0.000 -0.000
100180.930 -0.000 -0.000 -0.000 0.000 -0.000 -0.000
100180.940 -0.000 -0.000 -0.000 0.000 -0.000 -0.000
100180.950 -0.000 0.000 -0.000 -0.000 -0.000 -0.000
100180.960 -0.000 0.000 -0.000 -0.000 -0.000 -0.000
100180.970 -0.000 0.000 -0.000 -0.000 -0.000 -0.000
100180.980 -0.000 0.000 -0.000 -0.000 -0.000 -0.000
100180.990 -0.000 0.000 -0.000 -0.000 -0.000 -0.000
100181.000 -0.000 0.000 -0.000 -0.000 -0.000 -0.000
100181.010 -0.000 0.000 -0.000 -0.000 -0.000 -0.000
100181.020 -0.000 0.000 -0.000 -0.000 -0.000 -0.000
100181.030 -0.000 0.000 -0.000 -0.000 -0.000 -0.000
100181.040 -0.000 0.000 -0.000 -0.000 -0.000 -0.000
100181.050 -0.000 0.000 -0.000 -0.000 -0.000 -0.000
100181.060 -0.000 0.000 -0.000 -0.000 -0.000 -0.000
100181.070 -0.000 0.000 -0.000 -0.000 -0.000 -0.000
100181.080 -0.000 0.000 -0.000 -0.000 -0.000 -0.000
100181.090 -0.000 0.000 -0.000 -0.000 -0.000 -0.000
100181.100 -0.000 0.000 -0.000 -0.000 -0.000 -0.000
100181.110 -0.000 0.000 -0.000 -0.000 -0.000 -0.000
100181.120 -0.000 0.000 -0.000 -0.000 -0.000 -0.000
100181.130 -0.000 0.000 -0.000 -0.000 -0.000 -0.000
100181.140 -0.000 0.000 -0.000 -0.000 -0.000 -0.000
100181.150 -0.000 0.000 -0.000 -0.000 -0.000 -0.000
100181.160 -0.000 0.000 -0.000 -0.000 -0.000 -0.000
100181.170 -0.000 0.000 -0.000 -0.000 -0.000 -0.000
100181.180 -0.000 0.000 -0.000 -0.000 -0.000 -0.000
100181.190 -0.000 0.000 -0.000 -0.000 -0.000 -0.000
100181.200 -0.000 0.000 -0.000 -0.000 -0.000 -0.000
100181.210 -0.000 0.000 -0.000 -0.000 -0.000 -0.000
100181.220 -0.000 0.000 -0.000 -0.000 -0.000 -0.000
100181.230 -0.000 0.000 -0.000 -0.000 -0.000 -0.000
100181.240 -0.000 0.000 -0.000 -0.000 -0.000 -0.000
100181.250 -0.000 0.000 -0.000 -0.000 -0.000 -0.000
100181.260 -0.000 0.000 -0.000 -0.000 -0.000 -0.000
100181.270 -0.000 0.000 -0.000 -0.000 -0.000 -0.000
100181.280 -0.000 0.000 -0.000 -0.000 -0.000 -0.000
100181.290 -0.000 0.000 -0.000 -0.000 -0.000 -0.000
100181.300 0.000 0.000 -0.000 -0.000 -0.000 -0.000
100181.310 0.000 0.000 -0.000 -0.000 -0.000 -0.000
100181.320 0.000 0.000 -0.000 -0.000 -0.000 -0.000
100181.330 0.000 0.000 -0.000 -0.000 -0.000 -0.000
100181.340 0.000 0.000 -0.000 -0.000 -0.000 -0.000
100181.350 0.000 0.000 0.000 -0.000 0.000 -0.000
100181.360 0.000 0.000 0.000 -0.000 0.000 -0.000
100181.370 0.000 0.000 0.000 -0.000 0.000 -0.000
100181.380 0.000 0.000 0.000 -0.000 0.000 -0.000
100181.390 0.000 0.000 0.000 -0.000 0.000 -0.000
100181.400 0.000 0.000 0.000 -0.000 0.000 -0.000
100181.410 0.000 0.000 0.000 -0.000 0.000 -0.000
100181.420 0.000 0.000 0.000 -0.000 0.000 -0.000
100181.430 0.000 0.000 0.000 -0.000 0.000 -0.000
100181.440 0.000 0.000 0.000 -0.000 0.000 -0.000
100181.450 0.000 0.000 0.000 -0.000 0.000 -0.000
100181.460 0.000 0.000 0.000 -0.000 0.000 -0.000
100181.470 0.000 0.000 0.000 -0.000 0.000 -0.000
100181.480 0.000 0.000 0.000 -0.000 0.000 -0.000
100181.490 0.000 0.000 0.000 -0.000 0.000 -0.000
100181.500 0.000 0.000 0.000 -0.000 0.000 -0.000
100181.510 0.000 0.000 0.000 -0.000 0.000 -0.000
100181.520 0.000 0.000 0.000 -0.000 0.000 -0.000
100181.530 0.000 0.000 0.000 -0.000 0.000 -0.000
100181.540 0.000 0.000 0.000 -0.000 0.000 -0.000
100181.550 0.000 0.000 0.000 -0.000 0.000 -0.000
100181.560 0.000 0.000 0.000 -0.000 0.000 -0.000
100181.570 0.000 0.000 0.000 -0.000 0.000 -0.000
100181.580 0.000 0.000 0.000 -0.000 0.000 -0.000
100181.590 0.000 0.000 0.000 -0.000 0.000 -0.000
100181.600 0.000 0.000 0.000 -0.000 0.000 -0.000
100181.610 0.000 0.000 0.000 -0.000 0.000 -0.000
100181.620 0.000 0.000 0.000 -0.000 0.000 -0.000
100181.630 0.000 0.000 0.000 -0.000 0.000 -0.000
100181.640 0.000 0.000 0.000 -0.000 0.000 -0.000
100181.650 0.000 0.000 0.000 -0.000 0.000 -0.000
100181.660 0.000 0.000 0.000 -0.000 0.000 -0.000
100181.670 0.000 0.000 0.000 -0.000 0.000 -0.000
100181.680 0.000 0.000 0.000 -0.000 0.000 -0.000
100181.690 0.000 0.000 0.000 -0.000 0.000 -0.000
100181.700 0.000 0.000 0.000 -0.000 0.000 -0.000
100181.710 0.000 0.000 0.000 -0.000 0.000 -0.000
100181.720 0.000 0.000 0.000 -0.000 0.000 -0.000
100181.730 0.000 0.000 0.000 -0.000 0.000 -0.000
100181.740 0.000 0.000 0.000 -0.000 0.000 -0.000
100181.750 0.000 0.000 0.000 -0.000 0.000 -0.000
100181.760 0.000 0.000 0.000 -0.000 0.000 -0.000
100181.770 0.000 0.000 0.000 -0.000 0.000 -0.000
100181.780 0.000 0.000 0.000 -0.000 0.000 -0.000
100181.790 0.000 0.000 0.000 -0.000 0.000 -0.000
100181.800 0.000 0.000 0.000 -0.000 0.000 -0.000
100181.810 0.000 0.000 0.000 -0.000 0.000 -0.000
100181.820 0.000 0.000 0.000 -0.000 0.000 -0.000
100181.830 0.000 0.000 0.000 -0.000 0.000 -0.000
100181.840 0.000 0.000 0.000 -0.000 0.000 -0.000
100181.850 0.000 0.000 0.000 -0.000 0.000 -0.000
100181.860 0.000 0.000 0.000 -0.000 0.000 -0.000
100181.870 0.000 0.000 0.000 -0.000 0.000 -0.000
100181.880 0.000 0.000 0.000 -0.000 0.000 -0.000
100181.890 0.000 0.000 0.000 -0.000 0.000 -0.000
100181.900 0.000 0.000 0.000 -0.000 0.000 -0.001
100181.910 0.000 0.000 0.000 -0.000 0.000 -0.001
100181.920 0.000 0.000 0.000 -0.000 0.000 -0.001
100181.930 0.000 0.000 0.000 -0.000 0.000 -0.001
100181.940 0.000 0.000 0.000 -0.000 0.000 -0.001
100181.950 0.000 0.000 -0.000 -0.000 0.000 -0.001
100181.960 0.000 0.000 -0.000 -0.000 0.000 -0.001
100181.970 0.000 0.000 -0.000 -0.000 0.000 -0.001
100181.980 0.000 0.000 -0.000 -0.000 0.000 -0.001
100181.990 0.000 0.000 -0.000 -0.000 0.000 -0.001
100182.000 0.000 0.000 -0.000 -0.000 0.000 -0.001
100182.010 0.000 0.000 -0.000 -0.000 0.000 -0.001
100182.020 0.000 0.000 -0.000 -0.000 0.000 -0.001
100182.030 0.000 0.000 -0.000 -0.000 0.000 -0.001
100182.040 0.000 0.000 -0.000 -0.000 0.000 -0.001
100182.050 0.000 0.000 -0.000 -0.000 0.000 -0.001
100182.060 0.000 0.000 -0.000 -0.000 0.000 -0.001
100182.070 0.000 0.000 -0.000 -0.000 0.000 -0.001
100182.080 0.000 0.000 -0.000 -0.000 0.000 -0.001
100182.090 0.000 0.000 -0.000 -0.000 0.000 -0.001
100182.100 0.000 0.000 -0.000 -0.000 0.000 -0.001
100182.110 0.000 0.000 -0.000 -0.000 0.000 -0.001
100182.120 0.000 0.000 -0.000 -0.000 0.000 -0.001
100182.130 0.000 0.000 -0.000 -0.000 0.000 -0.001
100182.140 0.000 0.000 -0.000 -0.000 0.000 -0.001
100182.150 0.000 0.000 -0.000 -0.000 0.000 -0.001
100182.160 0.000 0.000 -0.000 -0.000 0.000 -0.001
100182.170 0.000 0.000 -0.000 -0.000 0.000 -0.001
100182.180 0.000 0.000 -0.000 -0.000 0.000 -0.001
100182.190 0.000 0.000 -0.000 -0.000 0.000 -0.001
100182.200 0.000 0.000 -0.000 -0.000 0.000 -0.001
100182.210 0.000 0.000 -0.000 -0.000 0.000 -0.001
100182.220 0.000 0.000 -0.000 -0.000 0.000 -0.001
100182.230 0.000 0.000 -0.000 -0.000 0.000 -0.001
100182.240 0.000 0.000 -0.000 -0.000 0.000 -0.001
100182.250 0.000 -0.000 0.000 -0.000 0.000 -0.001
100182.260 0.000 -0.000 0.000 -0.000 0.000 -0.001
100182.270 0.000 -0.000 0.000 -0.000 0.000 -0.001
100182.280 0.000 -0.000 0.000 -0.000 0.000 -0.001
100182.290 0.000 -0.000 0.000 -0.000 0.000 -0.001
100182.300 0.000 -0.000 0.000 -0.000 0.000 -0.001
100182.310 0.000 -0.000 0.000 -0.000 0.000 -0.001
100182.320 0.000 -0.000 0.000 -0.000 0.000 -0.001
100182.330 0.000 -0.000 0.000 -0.000 0.000 -0.001
100182.340 0.000 -0.000 0.000 -0.000 0.000 -0.001
100182.350 0.000 -0.000 0.000 0.000 0.000 -0.001
100182.360 0.000 -0.000 0.000 0.000 0.000 -0.001
100182.370 0.000 -0.000 0.000 0.000 0.000 -0.001
100182.380 0.000 -0.000 0.000 0.000 0.000 -0.001
100182.390 0.000 -0.000 0.000 0.000 0.000 -0.001
100182.400 0.000 -0.000 0.000 0.000 0.000 -0.001
100182.410 0.000 -0.000 0.000 0.000 0.000 -0.001
100182.420 0.000 -0.000 0.000 0.000 0.000 -0.001
100182.430 0.000 -0.000 0.000 0.000 0.000 -0.001
100182.440 0.000 -0.000 0.000 0.000 0.000 -0.001
100182.450 0.000 -0.000 0.000 0.000 0.000 -0.001
100182.460 0.000 -0.000 0.000 0.000 0.000 -0.001
100182.470 0.000 -0.000 0.000 0.000 0.000 -0.001
100182.480 0.000 -0.000 0.000 0.000 0.000 -0.001
100182.490 0.000 -0.000 0.000 0.000 0.000 -0.001
100182.500 0.000 -0.000 0.000 -0.000 0.000 -0.001
100182.510 0.000 -0.000 0.000 -0.000 0.000 -0.001
100182.520 0.000 -0.000 0.000 -0.000 0.000 -0.001
100182.530 0.000 -0.000 0.000 -0.000 0.000 -0.001
100182.540 0.000 -0.000 0.000 -0.000 0.000 -0.001
100182.550 0.000 -0.000 0.000 -0.000 0.000 -0.001
100182.560 0.000 -0.000 0.000 -0.000 0.000 -0.001
100182.570 0.000 -0.000 0.000 -0.000 0.000 -0.001
100182.580 0.000 -0.000 0.000 -0.000 0.000 -0.001
100182.590 0.000 -0.000 0.000 -0.000 0.000 -0.001
100182.600 0.000 0.000 0.000 -0.000 0.000 -0.001
100182.610 0.000 0.000 0.000 -0.000 0.000 -0.001
100182.620 0.000 0.000 0.000 -0.000 0.000 -0.001
100182.630 0.000 0.000 0.000 -0.000 0.000 -0.001
100182.640 0.000 0.000 0.000 -0.000 0.000 -0.001
100182.650 0.000 0.000 0.000 -0.000 0.000 -0.001
100182.660 0.000 0.000 0.000 -0.000 0.000 -0.001
100182.670 0.000 0.000 0.000 -0.000 0.000 -0.001
100182.680 0.000 0.000 0.000 -0.000 0.000 -0.001
100182.690 0.000 0.000 0.000 -0.000 0.000 -0.001
100182.700 0.000 0.000 0.000 -0.000 0.000 -0.001
100182.710 0.000 0.000 0.000 -0.000 0.000 -0.001
100182.720 0.000 0.000 0.000 -0.000 0.000 -0.001
100182.730 0.000 0.000 0.000 -0.000 0.000 -0.001
100182.740 0.000 0.000 0.000 -0.000 0.000 -0.001
100182.750 0.000 0.000 0.000 -0.000 0.000 -0.001
100182.760 0.000 0.000 0.000 -0.000 0.000 -0.001
100182.770 0.000 0.000 0.000 -0.000 0.000 -0.001
100182.780 0.000 0.000 0.000 -0.000 0.000 -0.001
100182.790 0.000 0.000 0.000 -0.000 0.000 -0.001
100182.800 0.000 0.000 0.000 -0.000 0.000 -0.001
100182.810 0.000 0.000 0.000 -0.000 0.000 -0.001
100182.820 0.000 0.000 0.000 -0.000 0.000 -0.001
100182.830 0.000 0.000 0.000 -0.000 0.000 -0.001
100182.840 0.000 0.000 0.000 -0.000 0.000 -0.001
100182.850 0.000 0.000 0.000 -0.000 -0.000 -0.000
100182.860 0.000 0.000 0.000 -0.000 -0.000 -0.000
100182.870 0.000 0.000 0.000 -0.000 -0.000 -0.000
100182.880 0.000 0.000 0.000 -0.000 -0.000 -0.000
100182.890 0.000 0.000 0.000 -0.000 -0.000 -0.000
100182.900 -0.000 0.000 0.000 -0.001 -0.000 -0.000
100182.910 -0.000 0.000 0.000 -0.001 -0.000 -0.000
100182.920 -0.000 0.000 0.000 -0.001 -0.000 -0.000
100182.930 -0.000 0.000 0.000 -0.001 -0.000 -0.000
100182.940 -0.000 0.000 0.000 -0.001 -0.000 -0.000
100182.950 -0.000 0.000 0.000 -0.001 -0.000 -0.000
100182.960 -0.000 0.000 0.000 -0.001 -0.000 -0.000
100182.970 -0.000 0.000 0.000 -0.001 -0.000 -0.000
100182.980 -0.000 0.000 0.000 -0.001 -0.000 -0.000
100182.990 -0.000 0.000 0.000 -0.001 -0.000 -0.000
100183.000 -0.000 0.000 0.000 -0.001 -0.000 0.000
100183.010 -0.000 0.000 0.000 -0.001 -0.000 0.000
100183.020 -0.000 0.000 0.000 -0.001 -0.000 0.000
100183.030 -0.000 0.000 0.000 -0.001 -0.000 0.000
100183.040 -0.000 0.000 0.000 -0.001 -0.000 0.000
100183.050 -0.000 0.000 0.000 -0.001 -0.000 0.000
100183.060 -0.000 0.000 0.000 -0.001 -0.000 0.000
100183.070 -0.000 0.000 0.000 -0.001 -0.000 0.000
100183.080 -0.000 0.000 0.000 -0.001 -0.000 0.000
100183.090 -0.000 0.000 0.000 -0.001 -0.000 0.000
100183.100 -0.000 0.000 0.000 -0.001 -0.000 0.000
100183.110 -0.000 0.000 0.000 -0.001 -0.000 0.000
100183.120 -0.000 0.000 0.000 -0.001 -0.000 0.000
100183.130 -0.000 0.000 0.000 -0.001 -0.000 0.000
100183.140 -0.000 0.000 0.000 -0.001 -0.000 0.000
100183.150 -0.000 0.000 0.000 -0.001 -0.000 0.000
100183.160 -0.000 0.000 0.000 -0.001 -0.000 0.000
100183.170 -0.000 0.000 0.000 -0.001 -0.000 0.000
100183.180 -0.000 0.000 0.000 -0.001 -0.000 0.000
100183.190 -0.000 0.000 0.000 -0.001 -0.000 0.000
100183.200 -0.000 0.000 0.000 -0.001 -0.000 0.001
100183.210 -0.000 0.000 0.000 -0.001 -0.000 0.001
100183.220 -0.000 0.000 0.000 -0.001 -0.000 0.001
100183.230 -0.000 0.000 0.000 -0.001 -0.000 0.001
100183.240 -0.000 0.000 0.000 -0.001 -0.000 0.001
100183.250 -0.000 0.000 0.000 -0.001 -0.000 0.001
100183.260 -0.000 0.000 0.000 -0.001 -0.000 0.001
100183.270 -0.000 0.000 0.000 -0.001 -0.000 0.001
100183.280 -0.000 0.000 0.000 -0.001 -0.000 0.001
100183.290 -0.000 0.000 0.000 -0.001 -0.000 0.001
100183.300 -0.000 0.000 0.000 -0.001 -0.000 0.001
100183.310 -0.000 0.000 0.000 -0.001 -0.000 0.001
100183.320 -0.000 0.000 0.000 -0.001 -0.000 0.001
100183.330 -0.000 0.000 0.000 -0.001 -0.000 0.001
100183.340 -0.000 0.000 0.000 -0.001 -0.000 0.001
100183.350 -0.000 0.000 0.000 -0.001 -0.000 0.001
100183.360 -0.000 0.000 0.000 -0.001 -0.000 0.001
100183.370 -0.000 0.000 0.000 -0.001 -0.000 0.001
100183.380 -0.000 0.000 0.000 -0.001 -0.000 0.001
100183.390 -0.000 0.000 0.000 -0.001 -0.000 0.001
100183.400 -0.000 0.000 0.000 -0.001 -0.000 0.001
100183.410 -0.000 0.000 0.000 -0.001 -0.000 0.001
100183.420 -0.000 0.000 0.000 -0.001 -0.000 0.001
100183.430 -0.000 0.000 0.000 -0.001 -0.000 0.001
100183.440 -0.000 0.000 0.000 -0.001 -0.000 0.001
100183.450 -0.000 0.000 0.000 -0.001 -0.001 0.001
100183.460 -0.000 0.000 0.000 -0.001 -0.001 0.001
100183.470 -0.000 0.000 0.000 -0.001 -0.001 0.001
100183.480 -0.000 0.000 0.000 -0.001 -0.001 0.001
100183.490 -0.000 0.000 0.000 -0.001 -0.001 0.001
100183.500 -0.000 0.000 0.000 -0.001 -0.001 0.001
100183.510 -0.000 0.000 0.000 -0.001 -0.001 0.001
100183.520 -0.000 0.000 0.000 -0.001 -0.001 0.001
100183.530 -0.000 0.000 0.000 -0.001 -0.001 0.001
100183.540 -0.000 0.000 0.000 -0.001 -0.001 0.001
100183.550 -0.000 0.000 0.000 -0.001 -0.001 0.001
100183.560 -0.000 0.000 0.000 -0.001 -0.001 0.001
100183.570 -0.000 0.000 0.000 -0.001 -0.001 0.001
100183.580 -0.000 0.000 0.000 -0.001 -0.001 0.001
100183.590 -0.000 0.000 0.000 -0.001 -0.001 0.001
100183.600 -0.000 0.000 0.000 -0.001 -0.001 0.001
100183.610 -0.000 0.000 0.000 -0.001 -0.001 0.001
100183.620 -0.000 0.000 0.000 -0.001 -0.001 0.001
100183.630 -0.000 0.000 0.000 -0.001 -0.001 0.001
100183.640 -0.000 0.000 0.000 -0.001 -0.001 0.001
100183.650 -0.000 0.000 0.000 -0.000 -0.001 0.001
100183.660 -0.000 0.000 0.000 -0.000 -0.001 0.001
100183.670 -0.000 0.000 0.000 -0.000 -0.001 0.001
100183.680 -0.000 0.000 0.000 -0.000 -0.001 0.001
100183.690 -0.000 0.000 0.000 -0.000 -0.001 0.001
100183.700 -0.000 -0.000 0.000 -0.000 -0.001 0.001
100183.710 -0.000 -0.000 0.000 -0.000 -0.001 0.001
100183.720 -0.000 -0.000 0.000 -0.000 -0.001 0.001
100183.730 -0.000 -0.000 0.000 -0.000 -0.001 0.001
100183.740 -0.000 -0.000 0.000 -0.000 -0.001 0.001
100183.750 -0.000 -0.000 0.000 0.000 -0.001 0.001
100183.760 -0.000 -0.000 0.000 0.000 -0.001 0.001
100183.770 -0.000 -0.000 0.000 0.000 -0.001 0.001
100183.780 -0.000 -0.000 0.000 0.000 -0.001 0.001
100183.790 -0.000 -0.000 0.000 0.000 -0.001 0.001
100183.800 -0.000 -0.000 0.000 0.000 -0.001 0.000
100183.810 -0.000 -0.000 0.000 0.000 -0.001 0.000
100183.820 -0.000 -0.000 0.000 0.000 -0.001 0.000
100183.830 -0.000 -0.000 0.000 0.000 -0.001 0.000
100183.840 -0.000 -0.000 0.000 0.000 -0.001 0.000
100183.850 -0.000 -0.000 0.000 0.001 -0.001 0.000
100183.860 -0.000 -0.000 0.000 0.001 -0.001 0.000
100183.870 -0.000 -0.000 0.000 0.001 -0.001 0.000
100183.880 -0.000 -0.000 0.000 0.001 -0.001 0.000
100183.890 -0.000 -0.000 0.000 0.001 -0.001 0.000
100183.900 -0.000 -0.000 -0.000 0.001 -0.000 0.000
100183.910 -0.000 -0.000 -0.000 0.001 -0.000 0.000
100183.920 -0.000 -0.000 -0.000 0.001 -0.000 0.000
100183.930 -0.000 -0.000 -0.000 0.001 -0.000 0.000
100183.940 -0.000 -0.000 -0.000 0.001 -0.000 0.000
100183.950 -0.000 -0.000 -0.000 0.002 -0.000 -0.000
100183.960 -0.000 -0.000 -0.000 0.002 -0.000 -0.000
100183.970 -0.000 -0.000 -0.000 0.002 -0.000 -0.000
100183.980 -0.000 -0.000 -0.000 0.002 -0.000 -0.000
100183.990 -0.000 -0.000 -0.000 0.002 -0.000 -0.000
100184.000 -0.000 -0.000 -0.000 0.002 -0.000 -0.000
100184.010 -0.000 -0.000 -0.000 0.002 -0.000 -0.000
100184.020 -0.000 -0.000 -0.000 0.002 -0.000 -0.000
100184.030 -0.000 -0.000 -0.000 0.002 -0.000 -0.000
100184.040 -0.000 -0.000 -0.000 0.002 -0.000 -0.000
100184.050 -0.000 -0.000 -0.000 0.003 -0.000 -0.001
100184.060 -0.000 -0.000 -0.000 0.003 -0.000 -0.001
100184.070 -0.000 -0.000 -0.000 0.003 -0.000 -0.001
100184.080 -0.000 -0.000 -0.000 0.003 -0.000 -0.001
100184.090 -0.000 -0.000 -0.000 0.003 -0.000 -0.001
100184.100 -0.000 -0.000 -0.000 0.003 -0.000 -0.001
100184.110 -0.000 -0.000 -0.000 0.003 -0.000 -0.001
100184.120 -0.000 -0.000 -0.000 0.003 -0.000 -0.001
100184.130 -0.000 -0.000 -0.000 0.003 -0.000 -0.001
100184.140 -0.000 -0.000 -0.000 0.003 -0.000 -0.001
100184.150 -0.000 -0.000 -0.000 0.004 -0.000 -0.001
100184.160 -0.000 -0.000 -0.000 0.004 -0.000 -0.001
100184.170 -0.000 -0.000 -0.000 0.004 -0.000 -0.001
100184.180 -0.000 -0.000 -0.000 0.004 -0.000 -0.001
100184.190 -0.000 -0.000 -0.000 0.004 -0.000 -0.001
100184.200 -0.000 -0.000 -0.000 0.005 -0.001 -0.001
100184.210 -0.000 -0.000 -0.000 0.005 -0.001 -0.001
100184.220 -0.000 -0.000 -0.000 0.005 -0.001 -0.001
100184.230 -0.000 -0.000 -0.000 0.005 -0.001 -0.001
100184.240 -0.000 -0.000 -0.000 0.005 -0.001 -0.001
100184.250 -0.000 -0.000 0.000 0.005 -0.001 -0.002
100184.260 -0.000 -0.000 0.000 0.005 -0.001 -0.002
100184.270 -0.000 -0.000 0.000 0.005 -0.001 -0.002
100184.280 -0.000 -0.000 0.000 0.005 -0.001 -0.002
100184.290 -0.000 -0.000 0.000 0.005 -0.001 -0.002
100184.300 -0.000 -0.000 0.000 0.006 -0.001 -0.002
100184.310 -0.000 -0.000 0.000 0.006 -0.001 -0.002
100184.320 -0.000 -0.000 0.000 0.006 -0.001 -0.002
100184.330 -0.000 -0.000 0.000 0.006 -0.001 -0.002
100184.340 -0.000 -0.000 0.000 0.006 -0.001 -0.002
100184.350 -0.000 -0.000 0.000 0.007 -0.001 -0.002
100184.360 -0.000 -0.000 0.000 0.007 -0.001 -0.002
100184.370 -0.000 -0.000 0.000 0.007 -0.001 -0.002
100184.380 -0.000 -0.000 0.000 0.007 -0.001 -0.002
100184.390 -0.000 -0.000 0.000 0.007 -0.001 -0.002
100184.400 -0.000 -0.000 0.000 0.007 -0.002 -0.002
100184.410 -0.000 -0.000 0.000 0.007 -0.002 -0.002
100184.420 -0.000 -0.000 0.000 0.007 -0.002 -0.002
100184.430 -0.000 -0.000 0.000 0.007 -0.002 -0.002
100184.440 -0.000 -0.000 0.000 0.007 -0.002 -0.002
100184.450 -0.000 -0.000 0.000 0.008 -0.002 -0.003
100184.460 -0.000 -0.000 0.000 0.008 -0.002 -0.003
100184.470 -0.000 -0.000 0.000 0.008 -0.002 -0.003
100184.480 -0.000 -0.000 0.000 0.008 -0.002 -0.003
100184.490 -0.000 -0.000 0.000 0.008 -0.002 -0.003
100184.500 -0.000 -0.000 0.000 0.009 -0.002 -0.003
100184.510 -0.000 -0.000 0.000 0.009 -0.002 -0.003
100184.520 -0.000 -0.000 0.000 0.009 -0.002 -0.003
100184.530 -0.000 -0.000 0.000 0.009 -0.002 -0.003
100184.540 -0.000 -0.000 0.000 0.009 -0.002 -0.003
100184.550 -0.000 -0.000 0.000 0.009 -0.002 -0.003
100184.560 -0.000 -0.000 0.000 0.009 -0.002 -0.003
100184.570 -0.000 -0.000 0.000 0.009 -0.002 -0.003
100184.580 -0.000 -0.000 0.000 0.009 -0.002 -0.003
100184.590 -0.000 -0.000 0.000 0.009 -0.002 -0.003
100184.600 -0.000 -0.000 0.000 0.010 -0.002 -0.003
100184.610 -0.000 -0.000 0.000 0.010 -0.002 -0.003
100184.620 -0.000 -0.000 0.000 0.010 -0.002 -0.003
100184.630 -0.000 -0.000 0.000 0.010 -0.002 -0.003
100184.640 -0.000 -0.000 0.000 0.010 -0.002 -0.003
100184.650 -0.000 -0.000 0.000 0.010 -0.002 -0.003
100184.660 -0.000 -0.000 0.000 0.010 -0.002 -0.003
100184.670 -0.000 -0.000 0.000 0.010 -0.002 -0.003
100184.680 -0.000 -0.000 0.000 0.010 -0.002 -0.003
100184.690 -0.000 -0.000 0.000 0.010 -0.002 -0.003
100184.700 -0.000 -0.000 0.000 0.011 -0.002 -0.003
100184.710 -0.000 -0.000 0.000 0.011 -0.002 -0.003
100184.720 -0.000 -0.000 0.000 0.011 -0.002 -0.003
100184.730 -0.000 -0.000 0.000 0.011 -0.002 -0.003
100184.740 -0.000 -0.000 0.000 0.011 -0.002 -0.003
100184.750 -0.000 -0.000 0.000 0.011 -0.002 -0.003
100184.760 -0.000 -0.000 0.000 0.011 -0.002 -0.003
100184.770 -0.000 -0.000 0.000 0.011 -0.002 -0.003
100184.780 -0.000 -0.000 0.000 0.011 -0.002 -0.003
100184.790 -0.000 -0.000 0.000 0.011 -0.002 -0.003
100184.800 -0.000 -0.000 0.000 0.012 -0.002 -0.004
100184.810 -0.000 -0.000 0.000 0.012 -0.002 -0.004
100184.820 -0.000 -0.000 0.000 0.012 -0.002 -0.004
100184.830 -0.000 -0.000 0.000 0.012 -0.002 -0.004
100184.840 -0.000 -0.000 0.000 0.012 -0.002 -0.004
100184.850 -0.000 -0.000 0.000 0.013 -0.002 -0.004
100184.860 -0.000 -0.000 0.000 0.013 -0.002 -0.004
100184.870 -0.000 -0.000 0.000 0.013 -0.002 -0.004
100184.880 -0.000 -0.000 0.000 0.013 -0.002 -0.004
100184.890 -0.000 -0.000 0.000 0.013 -0.002 -0.004
100184.900 -0.000 -0.000 0.000 0.014 -0.002 -0.004
100184.910 -0.000 -0.000 0.000 0.014 -0.002 -0.004
100184.920 -0.000 -0.000 0.000 0.014 -0.002 -0.004
100184.930 -0.000 -0.000 0.000 0.014 -0.002 -0.004
100184.940 -0.000 -0.000 0.000 0.014 -0.002 -0.004
100184.950 -0.000 -0.000 0.000 0.015 -0.002 -0.004
100184.960 -0.000 -0.000 0.000 0.015 -0.002 -0.004
100184.970 -0.000 -0.000 0.000 0.015 -0.002 -0.004
100184.980 -0.000 -0.000 0.000 0.015 -0.002 -0.004
100184.990 -0.000 -0.000 0.000 0.015 -0.002 -0.004
100185.000 -0.000 -0.000 0.000 0.016 -0.002 -0.005
100185.010 -0.000 -0.000 0.000 0.016 -0.002 -0.005
100185.020 -0.000 -0.000 0.000 0.016 -0.002 -0.005
100185.030 -0.000 -0.000 0.000 0.016 -0.002 -0.005
100185.040 -0.000 -0.000 0.000 0.016 -0.002 -0.005
100185.050 -0.000 -0.000 0.000 0.016 -0.002 -0.005
100185.060 -0.000 -0.000 0.000 0.016 -0.002 -0.005
100185.070 -0.000 -0.000 0.000 0.016 -0.002 -0.005
100185.080 -0.000 -0.000 0.000 0.016 -0.002 -0.005
100185.090 -0.000 -0.000 0.000 0.016 -0.002 -0.005
100185.100 -0.000 -0.000 0.000 0.017 -0.003 -0.005
100185.110 -0.000 -0.000 0.000 0.017 -0.003 -0.005
100185.120 -0.000 -0.000 0.000 0.017 -0.003 -0.005
100185.130 -0.000 -0.000 0.000 0.017 -0.003 -0.005
100185.140 -0.000 -0.000 0.000 0.017 -0.003 -0.005
100185.150 -0.000 -0.000 0.000 0.018 -0.003 -0.005
100185.160 -0.000 -0.000 0.000 0.018 -0.003 -0.005
100185.170 -0.000 -0.000 0.000 0.018 -0.003 -0.005
100185.180 -0.000 -0.000 0.000 0.018 -0.003 -0.005
100185.190 -0.000 -0.000 0.000 0.018 -0.003 -0.005
100185.200 -0.000 -0.000 0.000 0.019 -0.003 -0.005
100185.210 -0.000 -0.000 0.000 0.019 -0.003 -0.005
100185.220 -0.000 -0.000 0.000 0.019 -0.003 -0.005
100185.230 -0.000 -0.000 0.000 0.019 -0.003 -0.005
100185.240 -0.000 -0.000 0.000 0.019 -0.003 -0.005
100185.250 -0.000 -0.000 0.000 0.020 -0.003 -0.005
100185.260 -0.000 -0.000 0.000 0.020 -0.003 -0.005
100185.270 -0.000 -0.000 0.000 0.020 -0.003 -0.005
100185.280 -0.000 -0.000 0.000 0.020 -0.003 -0.005
100185.290 -0.000 -0.000 0.000 0.020 -0.003 -0.005
100185.300 -0.000 -0.000 0.000 0.020 -0.003 -0.006
100185.310 -0.000 -0.000 0.000 0.020 -0.003 -0.006
100185.320 -0.000 -0.000 0.000 0.020 -0.003 -0.006
100185.330 -0.000 -0.000 0.000 0.020 -0.003 -0.006
100185.340 -0.000 -0.000 0.000 0.020 -0.003 -0.006
100185.350 -0.000 -0.000 0.000 0.021 -0.003 -0.006
100185.360 -0.000 -0.000 0.000 0.021 -0.003 -0.006
100185.370 -0.000 -0.000 0.000 0.021 -0.003 -0.006
100185.380 -0.000 -0.000 0.000 0.021 -0.003 -0.006
100185.390 -0.000 -0.000 0.000 0.021 -0.003 -0.006
100185.400 -0.000 -0.000 0.000 0.021 -0.003 -0.006
100185.410 -0.000 -0.000 0.000 0.021 -0.003 -0.006
100185.420 -0.000 -0.000 0.000 0.021 -0.003 -0.006
100185.430 -0.000 -0.000 0.000 0.021 -0.003 -0.006
100185.440 -0.000 -0.000 0.000 0.021 -0.003 -0.006
100185.450 -0.000 -0.000 -0.000 0.022 -0.003 -0.006
100185.460 -0.000 -0.000 -0.000 0.022 -0.003 -0.006
100185.470 -0.000 -0.000 -0.000 0.022 -0.003 -0.006
100185.480 -0.000 -0.000 -0.000 0.022 -0.003 -0.006
100185.490 -0.000 -0.000 -0.000 0.022 -0.003 -0.006
100185.500 -0.000 -0.000 -0.000 0.023 -0.003 -0.006
100185.510 -0.000 -0.000 -0.000 0.023 -0.003 -0.006
100185.520 -0.000 -0.000 -0.000 0.023 -0.003 -0.006
100185.530 -0.000 -0.000 -0.000 0.023 -0.003 -0.006
100185.540 -0.000 -0.000 -0.000 0.023 -0.003 -0.006
100185.550 -0.000 -0.000 -0.000 0.024 -0.003 -0.006
100185.560 -0.000 -0.000 -0.000 0.024 -0.003 -0.006
100185.570 -0.000 -0.000 -0.000 0.024 -0.003 -0.006
100185.580 -0.000 -0.000 -0.000 0.024 -0.003 -0.006
100185.590 -0.000 -0.000 -0.000 0.024 -0.003 -0.006
100185.600 -0.000 -0.000 -0.000 0.025 -0.003 -0.006
100185.610 -0.000 -0.000 -0.000 0.025 -0.003 -0.006
100185.620 -0.000 -0.000 -0.000 0.025 -0.003 -0.006
100185.630 -0.000 -0.000 -0.000 0.025 -0.003 -0.006
100185.640 -0.000 -0.000 -0.000 0.025 -0.003 -0.006
100185.650 -0.000 -0.000 -0.000 0.026 -0.004 -0.006
100185.660 -0.000 -0.000 -0.000 0.026 -0.004 -0.006
100185.670 -0.000 -0.000 -0.000 0.026 -0.004 -0.006
100185.680 -0.000 -0.000 -0.000 0.026 -0.004 -0.006
100185.690 -0.000 -0.000 -0.000 0.026 -0.004 -0.006
100185.700 -0.000 -0.000 -0.000 0.027 -0.004 -0.006
100185.710 -0.000 -0.000 -0.000 0.027 -0.004 -0.006
100185.720 -0.000 -0.000 -0.000 0.027 -0.004 -0.006
100185.730 -0.000 -0.000 -0.000 0.027 -0.004 -0.006
100185.740 -0.000 -0.000 -0.000 0.027 -0.004 -0.006
100185.750 -0.000 -0.000 -0.000 0.028 -0.004 -0.006
100185.760 -0.000 -0.000 -0.000 0.028 -0.004 -0.006
100185.770 -0.000 -0.000 -0.000 0.028 -0.004 -0.006
100185.780 -0.000 -0.000 -0.000 0.028 -0.004 -0.006
100185.790 -0.000 -0.000 -0.000 0.028 -0.004 -0.006
100185.800 -0.000 -0.000 0.000 0.028 -0.004 -0.006
100185.810 -0.000 -0.000 0.000 0.028 -0.004 -0.006
100185.820 -0.000 -0.000 0.000 0.028 -0.004 -0.006
100185.830 -0.000 -0.000 0.000 0.028 -0.004 -0.006
100185.840 -0.000 -0.000 0.000 0.028 -0.004 -0.006
100185.850 -0.000 -0.000 0.000 0.029 -0.004 -0.006
100185.860 -0.000 -0.000 0.000 0.029 -0.004 -0.006
100185.870 -0.000 -0.000 0.000 0.029 -0.004 -0.006
100185.880 -0.000 -0.000 0.000 0.029 -0.004 -0.006
100185.890 -0.000 -0.000 0.000 0.029 -0.004 -0.006
100185.900 -0.000 -0.000 0.000 0.030 -0.004 -0.006
100185.910 -0.000 -0.000 0.000 0.030 -0.004 -0.006
100185.920 -0.000 -0.000 0.000 0.030 -0.004 -0.006
100185.930 -0.000 -0.000 0.000 0.030 -0.004 -0.006
100185.940 -0.000 -0.000 0.000 0.030 -0.004 -0.006
100185.950 -0.000 -0.000 0.000 0.030 -0.004 -0.006
100185.960 -0.000 -0.000 0.000 0.030 -0.004 -0.006
100185.970 -0.000 -0.000 0.000 0.030 -0.004 -0.006
100185.980 -0.000 -0.000 0.000 0.030 -0.004 -0.006
100185.990 -0.000 -0.000 0.000 0.030 -0.004 -0.006
100186.000 -0.000 -0.000 0.000 0.030 -0.004 -0.006
100186.010 -0.000 -0.000 0.000 0.030 -0.004 -0.006
100186.020 -0.000 -0.000 0.000 0.030 -0.004 -0.006
100186.030 -0.000 -0.000 0.000 0.030 -0.004 -0.006
100186.040 -0.000 -0.000 0.000 0.030 -0.004 -0.006
100186.050 -0.000 -0.000 0.000 0.030 -0.004 -0.006
100186.060 -0.000 -0.000 0.000 0.030 -0.004 -0.006
100186.070 -0.000 -0.000 0.000 0.030 -0.004 -0.006
100186.080 -0.000 -0.000 0.000 0.030 -0.004 -0.006
100186.090 -0.000 -0.000 0.000 0.030 -0.004 -0.006
100186.100 -0.000 -0.000 0.000 0.030 -0.004 -0.006
100186.110 -0.000 -0.000 0.000 0.030 -0.004 -0.006
100186.120 -0.000 -0.000 0.000 0.030 -0.004 -0.006
100186.130 -0.000 -0.000 0.000 0.030 -0.004 -0.006
100186.140 -0.000 -0.000 0.000 0.030 -0.004 -0.006
100186.150 -0.000 -0.000 0.000 0.030 -0.004 -0.006
100186.160 -0.000 -0.000 0.000 0.030 -0.004 -0.006
100186.170 -0.000 -0.000 0.000 0.030 -0.004 -0.006
100186.180 -0.000 -0.000 0.000 0.030 -0.004 -0.006
100186.190 -0.000 -0.000 0.000 0.030 -0.004 -0.006
100186.200 -0.000 -0.000 0.000 0.030 -0.004 -0.006
100186.210 -0.000 -0.000 0.000 0.030 -0.004 -0.006
100186.220 -0.000 -0.000 0.000 0.030 -0.004 -0.006
100186.230 -0.000 -0.000 0.000 0.030 -0.004 -0.006
100186.240 -0.000 -0.000 0.000 0.030 -0.004 -0.006
100186.250 -0.000 -0.000 0.000 0.030 -0.004 -0.006
100186.260 -0.000 -0.000 0.000 0.030 -0.004 -0.006
100186.270 -0.000 -0.000 0.000 0.030 -0.004 -0.006
100186.280 -0.000 -0.000 0.000 0.030 -0.004 -0.006
100186.290 -0.000 -0.000 0.000 0.030 -0.004 -0.006
100186.300 -0.000 -0.000 0.000 0.029 -0.004 -0.006
100186.310 -0.000 -0.000 0.000 0.029 -0.004 -0.006
100186.320 -0.000 -0.000 0.000 0.029 -0.004 -0.006
100186.330 -0.000 -0.000 0.000 0.029 -0.004 -0.006
100186.340 -0.000 -0.000 0.000 0.029 -0.004 -0.006
100186.350 -0.000 -0.000 0.000 0.029 -0.004 -0.006
100186.360 -0.000 -0.000 0.000 0.029 -0.004 -0.006
100186.370 -0.000 -0.000 0.000 0.029 -0.004 -0.006
100186.380 -0.000 -0.000 0.000 0.029 -0.004 -0.006
100186.390 -0.000 -0.000 0.000 0.029 -0.004 -0.006
100186.400 -0.000 -0.000 0.000 0.028 -0.004 -0.006
100186.410 -0.000 -0.000 0.000 0.028 -0.004 -0.006
100186.420 -0.000 -0.000 0.000 0.028 -0.004 -0.006
100186.430 -0.000 -0.000 0.000 0.028 -0.004 -0.006
100186.440 -0.000 -0.000 0.000 0.028 -0.004 -0.006
100186.450 -0.000 -0.000 0.000 0.028 -0.004 -0.005
100186.460 -0.000 -0.000 0.000 0.028 -0.004 -0.005
100186.470 -0.000 -0.000 0.000 0.028 -0.004 -0.005
100186.480 -0.000 -0.000 0.000 0.028 -0.004 -0.005
100186.490 -0.000 -0.000 0.000 0.028 -0.004 -0.005
100186.500 -0.000 -0.000 0.000 0.027 -0.003 -0.005
100186.510 -0.000 -0.000 0.000 0.027 -0.003 -0.005
100186.520 -0.000 -0.000 0.000 0.027 -0.003 -0.005
100186.530 -0.000 -0.000 0.000 0.027 -0.003 -0.005
100186.540 -0.000 -0.000 0.000 0.027 -0.003 -0.005
100186.550 -0.000 -0.000 0.000 0.026 -0.003 -0.005
100186.560 -0.000 -0.000 0.000 0.026 -0.003 -0.005
100186.570 -0.000 -0.000 0.000 0.026 -0.003 -0.005
100186.580 -0.000 -0.000 0.000 0.026 -0.003 -0.005
100186.590 -0.000 -0.000 0.000 0.026 -0.003 -0.005
100186.600 -0.000 -0.000 0.000 0.025 -0.003 -0.005
100186.610 -0.000 -0.000 0.000 0.025 -0.003 -0.005
100186.620 -0.000 -0.000 0.000 0.025 -0.003 -0.005
100186.630 -0.000 -0.000 0.000 0.025 -0.003 -0.005
100186.640 -0.000 -0.000 0.000 0.025 -0.003 -0.005
100186.650 -0.000 -0.000 0.000 0.025 -0.003 -0.005
100186.660 -0.000 -0.000 0.000 0.025 -0.003 -0.005
100186.670 -0.000 -0.000 0.000 0.025 -0.003 -0.005
100186.680 -0.000 -0.000 0.000 0.025 -0.003 -0.005
100186.690 -0.000 -0.000 0.000 0.025 -0.003 -0.005
100186.700 -0.000 -0.000 0.000 0.024 -0.003 -0.005
100186.710 -0.000 -0.000 0.000 0.024 -0.003 -0.005
100186.720 -0.000 -0.000 0.000 0.024 -0.003 -0.005
100186.730 -0.000 -0.000 0.000 0.024 -0.003 -0.005
100186.740 -0.000 -0.000 0.000 0.024 -0.003 -0.005
100186.750 -0.000 -0.000 0.000 0.023 -0.003 -0.005
100186.760 -0.000 -0.000 0.000 0.023 -0.003 -0.005
100186.770 -0.000 -0.000 0.000 0.023 -0.003 -0.005
100186.780 -0.000 -0.000 0.000 0.023 -0.003 -0.005
100186.790 -0.000 -0.000 0.000 0.023 -0.003 -0.005
100186.800 -0.000 -0.000 0.000 0.022 -0.002 -0.004
100186.810 -0.000 -0.000 0.000 0.022 -0.002 -0.004
100186.820 -0.000 -0.000 0.000 0.022 -0.002 -0.004
100186.830 -0.000 -0.000 0.000 0.022 -0.002 -0.004
100186.840 -0.000 -0.000 0.000 0.022 -0.002 -0.004
100186.850 -0.000 -0.000 0.000 0.021 -0.002 -0.004
100186.860 -0.000 -0.000 0.000 0.021 -0.002 -0.004
100186.870 -0.000 -0.000 0.000 0.021 -0.002 -0.004
100186.880 -0.000 -0.000 0.000 0.021 -0.002 -0.004
100186.890 -0.000 -0.000 0.000 0.021 -0.002 -0.004
100186.900 -0.000 -0.000 0.000 0.020 -0.002 -0.004
100186.910 -0.000 -0.000 0.000 0.020 -0.002 -0.004
100186.920 -0.000 -0.000 0.000 0.020 -0.002 -0.004
100186.930 -0.000 -0.000 0.000 0.020 -0.002 -0.004
100186.940 -0.000 -0.000 0.000 0.020 -0.002 -0.004
100186.950 -0.000 -0.000 0.000 0.019 -0.002 -0.004
100186.960 -0.000 -0.000 0.000 0.019 -0.002 -0.004
100186.970 -0.000 -0.000 0.000 0.019 -0.002 -0.004
100186.980 -0.000 -0.000 0.000 0.019 -0.002 -0.004
100186.990 -0.000 -0.000 0.000 0.019 -0.002 -0.004
100187.000 -0.000 -0.000 0.000 0.018 -0.001 -0.004
100187.010 -0.000 -0.000 0.000 0.018 -0.001 -0.004
100187.020 -0.000 -0.000 0.000 0.018 -0.001 -0.004
100187.030 -0.000 -0.000 0.000 0.018 -0.001 -0.004
100187.040 -0.000 -0.000 0.000 0.018 -0.001 -0.004
100187.050 -0.000 -0.000 0.000 0.017 -0.001 -0.004
100187.060 -0.000 -0.000 0.000 0.017 -0.001 -0.004
100187.070 -0.000 -0.000 0.000 0.017 -0.001 -0.004
100187.080 -0.000 -0.000 0.000 0.017 -0.001 -0.004
100187.090 -0.000 -0.000 0.000 0.017 -0.001 -0.004
100187.100 -0.000 -0.000 0.000 0.016 -0.001 -0.004
100187.110 -0.000 -0.000 0.000 0.016 -0.001 -0.004
100187.120 -0.000 -0.000 0.000 0.016 -0.001 -0.004
100187.130 -0.000 -0.000 0.000 0.016 -0.001 -0.004
100187.140 -0.000 -0.000 0.000 0.016 -0.001 -0.004
100187.150 -0.000 -0.000 0.000 0.015 -0.000 -0.004
100187.160 -0.000 -0.000 0.000 0.015 -0.000 -0.004
100187.170 -0.000 -0.000 0.000 0.015 -0.000 -0.004
100187.180 -0.000 -0.000 0.000 0.015 -0.000 -0.004
100187.190 -0.000 -0.000 0.000 0.015 -0.000 -0.004
100187.200 -0.000 -0.000 0.000 0.014 0.000 -0.003
100187.210 -0.000 -0.000 0.000 0.014 0.000 -0.003
100187.220 -0.000 -0.000 0.000 0.014 0.000 -0.003
100187.230 -0.000 -0.000 0.000 0.014 0.000 -0.003
100187.240 -0.000 -0.000 0.000 0.014 0.000 -0.003
100187.250 -0.000 -0.000 0.000 0.012 0.001 -0.003
100187.260 -0.000 -0.000 0.000 0.012 0.001 -0.003
100187.270 -0.000 -0.000 0.000 0.012 0.001 -0.003
100187.280 -0.000 -0.000 0.000 0.012 0.001 -0.003
100187.290 -0.000 -0.000 0.000 0.012 0.001 -0.003
100187.300 -0.000 -0.000 0.000 0.011 0.001 -0.003
100187.310 -0.000 -0.000 0.000 0.011 0.001 -0.003
100187.320 -0.000 -0.000 0.000 0.011 0.001 -0.003
100187.330 -0.000 -0.000 0.000 0.011 0.001 -0.003
100187.340 -0.000 -0.000 0.000 0.011 0.001 -0.003
100187.350 -0.000 -0.000 0.000 0.009 0.002 -0.003
100187.360 -0.000 -0.000 0.000 0.009 0.002 -0.003
100187.370 -0.000 -0.000 0.000 0.009 0.002 -0.003
100187.380 -0.000 -0.000 0.000 0.009 0.002 -0.003
100187.390 -0.000 -0.000 0.000 0.009 0.002 -0.003
100187.400 -0.000 0.000 0.000 0.008 0.002 -0.003
100187.410 -0.000 0.000 0.000 0.008 0.002 -0.003
100187.420 -0.000 0.000 0.000 0.008 0.002 -0.003
100187.430 -0.000 0.000 0.000 0.008 0.002 -0.003
100187.440 -0.000 0.000 0.000 0.008 0.002 -0.003
100187.450 -0.000 0.000 0.000 0.006 0.003 -0.003
100187.460 -0.000 0.000 0.000 0.006 0.003 -0.003
100187.470 -0.000 0.000 0.000 0.006 0.003 -0.003
100187.480 -0.000 0.000 0.000 0.006 0.003 -0.003
100187.490 -0.000 0.000 0.000 0.006 0.003 -0.003
100187.500 -0.000 0.000 0.000 0.005 0.003 -0.003
100187.510 -0.000 0.000 0.000 0.005 0.003 -0.003
100187.520 -0.000 0.000 0.000 0.005 0.003 -0.003
100187.530 -0.000 0.000 0.000 0.005 0.003 -0.003
100187.540 -0.000 0.000 0.000 0.005 0.003 -0.003
100187.550 0.000 0.000 0.000 0.004 0.004 -0.003
100187.560 0.000 0.000 0.000 0.004 0.004 -0.003
100187.570 0.000 0.000 0.000 0.004 0.004 -0.003
100187.580 0.000 0.000 0.000 0.004 0.004 -0.003
100187.590 0.000 0.000 0.000 0.004 0.004 -0.003
100187.600 0.000 0.000 0.000 0.002 0.004 -0.003
100187.610 0.000 0.000 0.000 0.002 0.004 -0.003
100187.620 0.000 0.000 0.000 0.002 0.004 -0.003
100187.630 0.000 0.000 0.000 0.002 0.004 -0.003
100187.640 0.000 0.000 0.000 0.002 0.004 -0.003
100187.650 0.000 0.000 0.000 0.001 0.005 -0.003
100187.660 0.000 0.000 0.000 0.001 0.005 -0.003
100187.670 0.000 0.000 0.000 0.001 0.005 -0.003
100187.680 0.000 0.000 0.000 0.001 0.005 -0.003
100187.690 0.000 0.000 0.000 0.001 0.005 -0.003
100187.700 0.000 0.000 0.000 -0.000 0.006 -0.003
100187.710 0.000 0.000 0.000 -0.000 0.006 -0.003
100187.720 0.000 0.000 0.000 -0.000 0.006 -0.003
100187.730 0.000 0.000 0.000 -0.000 0.006 -0.003
100187.740 0.000 0.000 0.000 -0.000 0.006 -0.003
100187.750 0.000 0.000 0.000 -0.001 0.006 -0.003
100187.760 0.000 0.000 0.000 -0.001 0.006 -0.003
100187.770 0.000 0.000 0.000 -0.001 0.006 -0.003
100187.780 0.000 0.000 0.000 -0.001 0.006 -0.003
100187.790 0.000 0.000 0.000 -0.001 0.006 -0.003
100187.800 0.000 0.000 0.000 -0.003 0.007 -0.003
100187.810 0.000 0.000 0.000 -0.003 0.007 -0.003
100187.820 0.000 0.000 0.000 -0.003 0.007 -0.003
100187.830 0.000 0.000 0.000 -0.003 0.007 -0.003
100187.840 0.000 0.000 0.000 -0.003 0.007 -0.003
100187.850 0.000 0.000 0.000 -0.004 0.008 -0.003
100187.860 0.000 0.000 0.000 -0.004 0.008 -0.003
100187.870 0.000 0.000 0.000 -0.004 0.008 -0.003
100187.880 0.000 0.000 0.000 -0.004 0.008 -0.003
100187.890 0.000 0.000 0.000 -0.004 0.008 -0.003
100187.900 0.000 0.000 0.000 -0.006 0.009 -0.003
100187.910 0.000 0.000 0.000 -0.006 0.009 -0.003
100187.920 0.000 0.000 0.000 -0.006 0.009 -0.003
100187.930 0.000 0.000 0.000 -0.006 0.009 -0.003
100187.940 0.000 0.000 0.000 -0.006 0.009 -0.003
100187.950 0.000 0.000 0.000 -0.007 0.010 -0.003
100187.960 0.000 0.000 0.000 -0.007 0.010 -0.003
100187.970 0.000 0.000 0.000 -0.007 0.010 -0.003
100187.980 0.000 0.000 0.000 -0.007 0.010 -0.003
100187.990 0.000 0.000 0.000 -0.007 0.010 -0.003
100188.000 0.000 0.000 0.000 -0.008 0.011 -0.003
100188.010 0.000 0.000 0.000 -0.008 0.011 -0.003
100188.020 0.000 0.000 0.000 -0.008 0.011 -0.003
100188.030 0.000 0.000 0.000 -0.008 0.011 -0.003
100188.040 0.000 0.000 0.000 -0.008 0.011 -0.003
100188.050 0.000 0.000 -0.000 -0.009 0.011 -0.003
100188.060 0.000 0.000 -0.000 -0.009 0.011 -0.003
100188.070 0.000 0.000 -0.000 -0.009 0.011 -0.003
100188.080 0.000 0.000 -0.000 -0.009 0.011 -0.003
100188.090 0.000 0.000 -0.000 -0.009 0.011 -0.003
100188.100 0.000 0.000 -0.000 -0.011 0.012 -0.003
100188.110 0.000 0.000 -0.000 -0.011 0.012 -0.003
100188.120 0.000 0.000 -0.000 -0.011 0.012 -0.003
100188.130 0.000 0.000 -0.000 -0.011 0.012 -0.003
100188.140 0.000 0.000 -0.000 -0.011 0.012 -0.003
100188.150 0.000 0.000 -0.000 -0.012 0.013 -0.003
100188.160 0.000 0.000 -0.000 -0.012 0.013 -0.003
100188.170 0.000 0.000 -0.000 -0.012 0.013 -0.003
100188.180 0.000 0.000 -0.000 -0.012 0.013 -0.003
100188.190 0.000 0.000 -0.000 -0.012 0.013 -0.003
100188.200 0.000 0.000 -0.000 -0.013 0.014 -0.003
100188.210 0.000 0.000 -0.000 -0.013 0.014 -0.003
100188.220 0.000 0.000 -0.000 -0.013 0.014 -0.003
100188.230 0.000 0.000 -0.000 -0.013 0.014 -0.003
100188.240 0.000 0.000 -0.000 -0.013 0.014 -0.003
100188.250 0.000 0.000 -0.000 -0.014 0.015 -0.003
100188.260 0.000 0.000 -0.000 -0.014 0.015 -0.003
100188.270 0.000 0.000 -0.000 -0.014 0.015 -0.003
100188.280 0.000 0.000 -0.000 -0.014 0.015 -0.003
100188.290 0.000 0.000 -0.000 -0.014 0.015 -0.003
100188.300 0.000 0.000 -0.000 -0.015 0.016 -0.003
100188.310 0.000 0.000 -0.000 -0.015 0.016 -0.003
100188.320 0.000 0.000 -0.000 -0.015 0.016 -0.003
100188.330 0.000 0.000 -0.000 -0.015 0.016 -0.003
100188.340 0.000 0.000 -0.000 -0.015 0.016 -0.003
100188.350 0.000 0.000 -0.000 -0.016 0.017 -0.003
100188.360 0.000 0.000 -0.000 -0.016 0.017 -0.003
100188.370 0.000 0.000 -0.000 -0.016 0.017 -0.003
100188.380 0.000 0.000 -0.000 -0.016 0.017 -0.003
100188.390 0.000 0.000 -0.000 -0.016 0.017 -0.003
100188.400 0.000 0.000 -0.000 -0.016 0.018 -0.003
100188.410 0.000 0.000 -0.000 -0.016 0.018 -0.003
100188.420 0.000 0.000 -0.000 -0.016 0.018 -0.003
100188.430 0.000 0.000 -0.000 -0.016 0.018 -0.003
100188.440 0.000 0.000 -0.000 -0.016 0.018 -0.003
100188.450 0.000 0.000 -0.000 -0.017 0.019 -0.003
100188.460 0.000 0.000 -0.000 -0.017 0.019 -0.003
100188.470 0.000 0.000 -0.000 -0.017 0.019 -0.003
100188.480 0.000 0.000 -0.000 -0.017 0.019 -0.003
100188.490 0.000 0.000 -0.000 -0.017 0.019 -0.003
100188.500 0.000 0.000 -0.000 -0.017 0.019 -0.003
100188.510 0.000 0.000 -0.000 -0.017 0.019 -0.003
100188.520 0.000 0.000 -0.000 -0.017 0.019 -0.003
100188.530 0.000 0.000 -0.000 -0.017 0.019 -0.003
100188.540 0.000 0.000 -0.000 -0.017 0.019 -0.003
100188.550 0.000 0.000 -0.000 -0.018 0.020 -0.003
100188.560 0.000 0.000 -0.000 -0.018 0.020 -0.003
100188.570 0.000 0.000 -0.000 -0.018 0.020 -0.003
100188.580 0.000 0.000 -0.000 -0.018 0.020 -0.003
100188.590 0.000 0.000 -0.000 -0.018 0.020 -0.003
100188.600 0.000 0.000 -0.000 -0.018 0.021 -0.003
100188.610 0.000 0.000 -0.000 -0.018 0.021 -0.003
100188.620 0.000 0.000 -0.000 -0.018 0.021 -0.003
100188.630 0.000 0.000 -0.000 -0.018 0.021 -0.003
100188.640 0.000 0.000 -0.000 -0.018 0.021 -0.003
100188.650 0.000 0.000 -0.000 -0.018 0.022 -0.003
100188.660 0.000 0.000 -0.000 -0.018 0.022 -0.003
100188.670 0.000 0.000 -0.000 -0.018 0.022 -0.003
100188.680 0.000 0.000 -0.000 -0.018 0.022 -0.003
100188.690 0.000 0.000 -0.000 -0.018 0.022 -0.003
100188.700 0.000 0.000 -0.000 -0.019 0.022 -0.003
100188.710 0.000 0.000 -0.000 -0.019 0.022 -0.003
100188.720 0.000 0.000 -0.000 -0.019 0.022 -0.003
100188.730 0.000 0.000 -0.000 -0.019 0.022 -0.003
100188.740 0.000 0.000 -0.000 -0.019 0.022 -0.003
100188.750 0.000 0.000 -0.000 -0.019 0.023 -0.003
100188.760 0.000 0.000 -0.000 -0.019 0.023 -0.003
100188.770 0.000 0.000 -0.000 -0.019 0.023 -0.003
100188.780 0.000 0.000 -0.000 -0.019 0.023 -0.003
100188.790 0.000 0.000 -0.000 -0.019 0.023 -0.003
100188.800 0.000 0.000 -0.000 -0.019 0.024 -0.003
100188.810 0.000 0.000 -0.000 -0.019 0.024 -0.003
100188.820 0.000 0.000 -0.000 -0.019 0.024 -0.003
100188.830 0.000 0.000 -0.000 -0.019 0.024 -0.003
100188.840 0.000 0.000 -0.000 -0.019 0.024 -0.003
100188.850 0.000 0.000 -0.000 -0.019 0.024 -0.003
100188.860 0.000 0.000 -0.000 -0.019 0.024 -0.003
100188.870 0.000 0.000 -0.000 -0.019 0.024 -0.003
100188.880 0.000 0.000 -0.000 -0.019 0.024 -0.003
100188.890 0.000 0.000 -0.000 -0.019 0.024 -0.003
100188.900 0.000 0.000 -0.000 -0.019 0.025 -0.003
100188.910 0.000 0.000 -0.000 -0.019 0.025 -0.003
100188.920 0.000 0.000 -0.000 -0.019 0.025 -0.003
100188.930 0.000 0.000 -0.000 -0.019 0.025 -0.003
100188.940 0.000 0.000 -0.000 -0.019 0.025 -0.003
100188.950 0.000 0.000 -0.000 -0.019 0.025 -0.003
100188.960 0.000 0.000 -0.000 -0.019 0.025 -0.003
100188.970 0.000 0.000 -0.000 -0.019 0.025 -0.003
100188.980 0.000 0.000 -0.000 -0.019 0.025 -0.003
100188.990 0.000 0.000 -0.000 -0.019 0.025 -0.003
100189.000 0.000 0.000 -0.000 -0.019 0.026 -0.003
100189.010 0.000 0.000 -0.000 -0.019 0.026 -0.003
100189.020 0.000 0.000 -0.000 -0.019 0.026 -0.003
100189.030 0.000 0.000 -0.000 -0.019 0.026 -0.003
100189.040 0.000 0.000 -0.000 -0.019 0.026 -0.003
100189.050 0.000 0.000 -0.000 -0.018 0.027 -0.003
100189.060 0.000 0.000 -0.000 -0.018 0.027 -0.003
100189.070 0.000 0.000 -0.000 -0.018 0.027 -0.003
100189.080 0.000 0.000 -0.000 -0.018 0.027 -0.003
100189.090 0.000 0.000 -0.000 -0.018 0.027 -0.003
100189.100 0.000 0.000 -0.000 -0.018 0.028 -0.003
100189.110 0.000 0.000 -0.000 -0.018 0.028 -0.003
100189.120 0.000 0.000 -0.000 -0.018 0.028 -0.003
100189.130 0.000 0.000 -0.000 -0.018 0.028 -0.003
100189.140 0.000 0.000 -0.000 -0.018 0.028 -0.003
100189.150 0.000 0.000 -0.000 -0.017 0.028 -0.004
100189.160 0.000 0.000 -0.000 -0.017 0.028 -0.004
100189.170 0.000 0.000 -0.000 -0.017 0.028 -0.004
100189.180 0.000 0.000 -0.000 -0.017 0.028 -0.004
100189.190 0.000 0.000 -0.000 -0.017 0.028 -0.004
100189.200 0.000 0.000 -0.000 -0.016 0.030 -0.004
100189.210 0.000 0.000 -0.000 -0.016 0.030 -0.004
100189.220 0.000 0.000 -0.000 -0.016 0.030 -0.004
100189.230 0.000 0.000 -0.000 -0.016 0.030 -0.004
100189.240 0.000 0.000 -0.000 -0.016 0.030 -0.004
100189.250 0.000 0.000 0.000 -0.015 0.031 -0.004
100189.260 0.000 0.000 0.000 -0.015 0.031 -0.004
100189.270 0.000 0.000 0.000 -0.015 0.031 -0.004
100189.280 0.000 0.000 0.000 -0.015 0.031 -0.004
100189.290 0.000 0.000 0.000 -0.015 0.031 -0.004
100189.300 0.000 0.000 0.000 -0.014 0.033 -0.004
100189.310 0.000 0.000 0.000 -0.014 0.033 -0.004
100189.320 0.000 0.000 0.000 -0.014 0.033 -0.004
100189.330 0.000 0.000 0.000 -0.014 0.033 -0.004
100189.340 0.000 0.000 0.000 -0.014 0.033 -0.004
100189.350 0.000 0.000 0.000 -0.013 0.034 -0.004
100189.360 0.000 0.000 0.000 -0.013 0.034 -0.004
100189.370 0.000 0.000 0.000 -0.013 0.034 -0.004
100189.380 0.000 0.000 0.000 -0.013 0.034 -0.004
100189.390 0.000 0.000 0.000 -0.013 0.034 -0.004
100189.400 0.000 0.000 0.000 -0.012 0.035 -0.004
100189.410 0.000 0.000 0.000 -0.012 0.035 -0.004
100189.420 0.000 0.000 0.000 -0.012 0.035 -0.004
100189.430 0.000 0.000 0.000 -0.012 0.035 -0.004
100189.440 0.000 0.000 0.000 -0.012 0.035 -0.004
100189.450 0.000 0.000 0.000 -0.011 0.036 -0.004
100189.460 0.000 0.000 0.000 -0.011 0.036 -0.004
100189.470 0.000 0.000 0.000 -0.011 0.036 -0.004
100189.480 0.000 0.000 0.000 -0.011 0.036 -0.004
100189.490 0.000 0.000 0.000 -0.011 0.036 -0.004
100189.500 0.000 0.000 0.000 -0.010 0.037 -0.004
100189.510 0.000 0.000 0.000 -0.010 0.037 -0.004
100189.520 0.000 0.000 0.000 -0.010 0.037 -0.004
100189.530 0.000 0.000 0.000 -0.010 0.037 -0.004
100189.540 0.000 0.000 0.000 -0.010 0.037 -0.004
100189.550 0.000 0.000 0.000 -0.010 0.038 -0.004
100189.560 0.000 0.000 0.000 -0.010 0.038 -0.004
100189.570 0.000 0.000 0.000 -0.010 0.038 -0.004
100189.580 0.000 0.000 0.000 -0.010 0.038 -0.004
100189.590 0.000 0.000 0.000 -0.010 0.038 -0.004
100189.600 0.000 0.000 0.000 -0.009 0.038 -0.004
100189.610 0.000 0.000 0.000 -0.009 0.038 -0.004
100189.620 0.000 0.000 0.000 -0.009 0.038 -0.004
100189.630 0.000 0.000 0.000 -0.009 0.038 -0.004
100189.640 0.000 0.000 0.000 -0.009 0.038 -0.004
100189.650 0.000 0.000 0.000 -0.009 0.038 -0.004
100189.660 0.000 0.000 0.000 -0.009 0.038 -0.004
100189.670 0.000 0.000 0.000 -0.009 0.038 -0.004
100189.680 0.000 0.000 0.000 -0.009 0.038 -0.004
100189.690 0.000 0.000 0.000 -0.009 0.038 -0.004
100189.700 0.000 0.000 0.000 -0.008 0.036 -0.004
100189.710 0.000 0.000 0.000 -0.008 0.036 -0.004
100189.720 0.000 0.000 0.000 -0.008 0.036 -0.004
100189.730 0.000 0.000 0.000 -0.008 0.036 -0.004
100189.740 0.000 0.000 0.000 -0.008 0.036 -0.004
100189.750 0.000 0.000 0.000 -0.008 0.034 -0.004
100189.760 0.000 0.000 0.000 -0.008 0.034 -0.004
100189.770 0.000 0.000 0.000 -0.008 0.034 -0.004
100189.780 0.000 0.000 0.000 -0.008 0.034 -0.004
100189.790 0.000 0.000 0.000 -0.008 0.034 -0.004
100189.800 0.000 0.000 0.000 -0.008 0.031 -0.004
100189.810 0.000 0.000 0.000 -0.008 0.031 -0.004
100189.820 0.000 0.000 0.000 -0.008 0.031 -0.004
100189.830 0.000 0.000 0.000 -0.008 0.031 -0.004
100189.840 0.000 0.000 0.000 -0.008 0.031 -0.004
100189.850 0.000 0.000 0.000 -0.008 0.030 -0.004
100189.860 0.000 0.000 0.000 -0.008 0.030 -0.004
100189.870 0.000 0.000 0.000 -0.008 0.030 -0.004
100189.880 0.000 0.000 0.000 -0.008 0.030 -0.004
100189.890 0.000 0.000 0.000 -0.008 0.030 -0.004
100189.900 0.000 0.000 0.000 -0.008 0.029 -0.004
100189.910 0.000 0.000 0.000 -0.008 0.029 -0.004
100189.920 0.000 0.000 0.000 -0.008 0.029 -0.004
100189.930 0.000 0.000 0.000 -0.008 0.029 -0.004
100189.940 0.000 0.000 0.000 -0.008 0.029 -0.004
100189.950 0.000 0.000 0.000 -0.008 0.028 -0.004
100189.960 0.000 0.000 0.000 -0.008 0.028 -0.004
100189.970 0.000 0.000 0.000 -0.008 0.028 -0.004
100189.980 0.000 0.000 0.000 -0.008 0.028 -0.004
100189.990 0.000 0.000 0.000 -0.008 0.028 -0.004
100190.000 0.000 0.000 0.000 -0.006 0.029 -0.004
100190.010 0.000 0.000 0.000 -0.006 0.029 -0.004
100190.020 0.000 0.000 0.000 -0.006 0.029 -0.004
100190.030 0.000 0.000 0.000 -0.006 0.029 -0.004
100190.040 0.000 0.000 0.000 -0.006 0.029 -0.004
100190.050 0.000 0.000 0.000 -0.006 0.028 -0.004
100190.060 0.000 0.000 0.000 -0.006 0.028 -0.004
100190.070 0.000 0.000 0.000 -0.006 0.028 -0.004
100190.080 0.000 0.000 0.000 -0.006 0.028 -0.004
100190.090 0.000 0.000 0.000 -0.006 0.028 -0.004
100190.100 0.000 0.000 0.000 -0.006 0.028 -0.004
100190.110 0.000 0.000 0.000 -0.006 0.028 -0.004
100190.120 0.000 0.000 0.000 -0.006 0.028 -0.004
100190.130 0.000 0.000 0.000 -0.006 0.028 -0.004
100190.140 0.000 0.000 0.000 -0.006 0.028 -0.004
100190.150 0.000 0.000 0.000 -0.006 0.026 -0.004
100190.160 0.000 0.000 0.000 -0.006 0.026 -0.004
100190.170 0.000 0.000 0.000 -0.006 0.026 -0.004
100190.180 0.000 0.000 0.000 -0.006 0.026 -0.004
100190.190 0.000 0.000 0.000 -0.006 0.026 -0.004
100190.200 0.000 0.000 0.000 -0.006 0.025 -0.004
100190.210 0.000 0.000 0.000 -0.006 0.025 -0.004
100190.220 0.000 0.000 0.000 -0.006 0.025 -0.004
100190.230 0.000 0.000 0.000 -0.006 0.025 -0.004
100190.240 0.000 0.000 0.000 -0.006 0.025 -0.004
100190.250 0.000 0.000 0.000 -0.006 0.024 -0.004
100190.260 0.000 0.000 0.000 -0.006 0.024 -0.004
100190.270 0.000 0.000 0.000 -0.006 0.024 -0.004
100190.280 0.000 0.000 0.000 -0.006 0.024 -0.004
100190.290 0.000 0.000 0.000 -0.006 0.024 -0.004
100190.300 0.000 0.000 0.000 -0.006 0.022 -0.004
100190.310 0.000 0.000 0.000 -0.006 0.022 -0.004
100190.320 0.000 0.000 0.000 -0.006 0.022 -0.004
100190.330 0.000 0.000 0.000 -0.006 0.022 -0.004
100190.340 0.000 0.000 0.000 -0.006 0.022 -0.004
100190.350 0.000 0.000 0.000 -0.006 0.021 -0.004
100190.360 0.000 0.000 0.000 -0.006 0.021 -0.004
100190.370 0.000 0.000 0.000 -0.006 0.021 -0.004
100190.380 0.000 0.000 0.000 -0.006 0.021 -0.004
100190.390 0.000 0.000 0.000 -0.006 0.021 -0.004
100190.400 0.000 0.000 0.000 -0.006 0.020 -0.004
100190.410 0.000 0.000 0.000 -0.006 0.020 -0.004
100190.420 0.000 0.000 0.000 -0.006 0.020 -0.004
100190.430 0.000 0.000 0.000 -0.006 0.020 -0.004
100190.440 0.000 0.000 0.000 -0.006 0.020 -0.004
100190.450 0.000 0.000 0.000 -0.006 0.018 -0.004
100190.460 0.000 0.000 0.000 -0.006 0.018 -0.004
100190.470 0.000 0.000 0.000 -0.006 0.018 -0.004
100190.480 0.000 0.000 0.000 -0.006 0.018 -0.004
100190.490 0.000 0.000 0.000 -0.006 0.018 -0.004
100190.500 0.000 0.000 0.000 -0.007 0.017 -0.004
100190.510 0.000 0.000 0.000 -0.007 0.017 -0.004
100190.520 0.000 0.000 0.000 -0.007 0.017 -0.004
100190.530 0.000 0.000 0.000 -0.007 0.017 -0.004
100190.540 0.000 0.000 0.000 -0.007 0.017 -0.004
100190.550 0.000 0.000 0.000 -0.008 0.016 -0.004
100190.560 0.000 0.000 0.000 -0.008 0.016 -0.004
100190.570 0.000 0.000 0.000 -0.008 0.016 -0.004
100190.580 0.000 0.000 0.000 -0.008 0.016 -0.004
100190.590 0.000 0.000 0.000 -0.008 0.016 -0.004
100190.600 0.000 0.000 0.000 -0.009 0.015 -0.004
100190.610 0.000 0.000 0.000 -0.009 0.015 -0.004
100190.620 0.000 0.000 0.000 -0.009 0.015 -0.004
100190.630 0.000 0.000 0.000 -0.009 0.015 -0.004
100190.640 0.000 0.000 0.000 -0.009 0.015 -0.004
100190.650 0.000 0.000 0.000 -0.010 0.013 -0.004
100190.660 0.000 0.000 0.000 -0.010 0.013 -0.004
100190.670 0.000 0.000 0.000 -0.010 0.013 -0.004
100190.680 0.000 0.000 0.000 -0.010 0.013 -0.004
100190.690 0.000 0.000 0.000 -0.010 0.013 -0.004
100190.700 0.000 0.000 0.000 -0.011 0.012 -0.004
100190.710 0.000 0.000 0.000 -0.011 0.012 -0.004
100190.720 0.000 0.000 0.000 -0.011 0.012 -0.004
100190.730 0.000 0.000 0.000 -0.011 0.012 -0.004
100190.740 0.000 0.000 0.000 -0.011 0.012 -0.004
100190.750 0.000 0.000 0.000 -0.012 0.011 -0.004
100190.760 0.000 0.000 0.000 -0.012 0.011 -0.004
100190.770 0.000 0.000 0.000 -0.012 0.011 -0.004
100190.780 0.000 0.000 0.000 -0.012 0.011 -0.004
100190.790 0.000 0.000 0.000 -0.012 0.011 -0.004
100190.800 0.000 0.000 0.000 -0.012 0.010 -0.004
100190.810 0.000 0.000 0.000 -0.012 0.010 -0.004
100190.820 0.000 0.000 0.000 -0.012 0.010 -0.004
100190.830 0.000 0.000 0.000 -0.012 0.010 -0.004
100190.840 0.000 0.000 0.000 -0.012 0.010 -0.004
100190.850 0.000 0.000 0.000 -0.013 0.009 -0.004
100190.860 0.000 0.000 0.000 -0.013 0.009 -0.004
100190.870 0.000 0.000 0.000 -0.013 0.009 -0.004
100190.880 0.000 0.000 0.000 -0.013 0.009 -0.004
100190.890 0.000 0.000 0.000 -0.013 0.009 -0.004
100190.900 0.000 0.000 0.000 -0.013 0.008 -0.004
100190.910 0.000 0.000 0.000 -0.013 0.008 -0.004
100190.920 0.000 0.000 0.000 -0.013 0.008 -0.004
100190.930 0.000 0.000 0.000 -0.013 0.008 -0.004
100190.940 0.000 0.000 0.000 -0.013 0.008 -0.004
100190.950 0.000 0.000 0.000 -0.013 0.006 -0.004
100190.960 0.000 0.000 0.000 -0.013 0.006 -0.004
100190.970 0.000 0.000 0.000 -0.013 0.006 -0.004
100190.980 0.000 0.000 0.000 -0.013 0.006 -0.004
100190.990 0.000 0.000 0.000 -0.013 0.006 -0.004
100191.000 0.000 0.000 0.000 -0.013 0.005 -0.004
100191.010 0.000 0.000 0.000 -0.013 0.005 -0.004
100191.020 0.000 0.000 0.000 -0.013 0.005 -0.004
100191.030 0.000 0.000 0.000 -0.013 0.005 -0.004
100191.040 0.000 0.000 0.000 -0.013 0.005 -0.004
100191.050 0.000 0.000 0.000 -0.013 0.004 -0.003
100191.060 0.000 0.000 0.000 -0.013 0.004 -0.003
100191.070 0.000 0.000 0.000 -0.013 0.004 -0.003
100191.080 0.000 0.000 0.000 -0.013 0.004 -0.003
100191.090 0.000 0.000 0.000 -0.013 0.004 -0.003
100191.100 0.000 0.000 0.000 -0.013 0.003 -0.003
100191.110 0.000 0.000 0.000 -0.013 0.003 -0.003
100191.120 0.000 0.000 0.000 -0.013 0.003 -0.003
100191.130 0.000 0.000 0.000 -0.013 0.003 -0.003
100191.140 0.000 0.000 0.000 -0.013 0.003 -0.003
100191.150 0.000 0.000 0.000 -0.013 0.001 -0.003
100191.160 0.000 0.000 0.000 -0.013 0.001 -0.003
100191.170 0.000 0.000 0.000 -0.013 0.001 -0.003
100191.180 0.000 0.000 0.000 -0.013 0.001 -0.003
100191.190 0.000 0.000 0.000 -0.013 0.001 -0.003
100191.200 0.000 0.000 0.000 -0.013 0.000 -0.003
100191.210 0.000 0.000 0.000 -0.013 0.000 -0.003
100191.220 0.000 0.000 0.000 -0.013 0.000 -0.003
100191.230 0.000 0.000 0.000 -0.013 0.000 -0.003
100191.240 0.000 0.000 0.000 -0.013 0.000 -0.003
100191.250 0.000 0.000 0.000 -0.013 -0.001 -0.003
100191.260 0.000 0.000 0.000 -0.013 -0.001 -0.003
100191.270 0.000 0.000 0.000 -0.013 -0.001 -0.003
100191.280 0.000 0.000 0.000 -0.013 -0.001 -0.003
100191.290 0.000 0.000 0.000 -0.013 -0.001 -0.003
100191.300 0.000 0.000 0.000 -0.013 -0.002 -0.003
100191.310 0.000 0.000 0.000 -0.013 -0.002 -0.003
100191.320 0.000 0.000 0.000 -0.013 -0.002 -0.003
100191.330 0.000 0.000 0.000 -0.013 -0.002 -0.003
100191.340 0.000 0.000 0.000 -0.013 -0.002 -0.003
100191.350 0.000 0.000 0.000 -0.013 -0.003 -0.003
100191.360 0.000 0.000 0.000 -0.013 -0.003 -0.003
100191.370 0.000 0.000 0.000 -0.013 -0.003 -0.003
100191.380 0.000 0.000 0.000 -0.013 -0.003 -0.003
100191.390 0.000 0.000 0.000 -0.013 -0.003 -0.003
100191.400 0.000 0.000 0.000 -0.013 -0.004 -0.003
100191.410 0.000 0.000 0.000 -0.013 -0.004 -0.003
100191.420 0.000 0.000 0.000 -0.013 -0.004 -0.003
100191.430 0.000 0.000 0.000 -0.013 -0.004 -0.003
100191.440 0.000 0.000 0.000 -0.013 -0.004 -0.003
100191.450 0.000 0.000 0.000 -0.013 -0.005 -0.002
100191.460 0.000 0.000 0.000 -0.013 -0.005 -0.002
100191.470 0.000 0.000 0.000 -0.013 -0.005 -0.002
100191.480 0.000 0.000 0.000 -0.013 -0.005 -0.002
100191.490 0.000 0.000 0.000 -0.013 -0.005 -0.002
100191.500 0.000 0.000 0.000 -0.014 -0.006 -0.002
100191.510 0.000 0.000 0.000 -0.014 -0.006 -0.002
100191.520 0.000 0.000 0.000 -0.014 -0.006 -0.002
100191.530 0.000 0.000 0.000 -0.014 -0.006 -0.002
100191.540 0.000 0.000 0.000 -0.014 -0.006 -0.002
100191.550 0.000 0.000 0.000 -0.014 -0.006 -0.002
100191.560 0.000 0.000 0.000 -0.014 -0.006 -0.002
100191.570 0.000 0.000 0.000 -0.014 -0.006 -0.002
100191.580 0.000 0.000 0.000 -0.014 -0.006 -0.002
100191.590 0.000 0.000 0.000 -0.014 -0.006 -0.002
100191.600 0.000 0.000 0.000 -0.014 -0.007 -0.002
100191.610 0.000 0.000 0.000 -0.014 -0.007 -0.002
100191.620 0.000 0.000 0.000 -0.014 -0.007 -0.002
100191.630 0.000 0.000 0.000 -0.014 -0.007 -0.002
100191.640 0.000 0.000 0.000 -0.014 -0.007 -0.002
100191.650 0.000 0.000 0.000 -0.014 -0.008 -0.002
100191.660 0.000 0.000 0.000 -0.014 -0.008 -0.002
100191.670 0.000 0.000 0.000 -0.014 -0.008 -0.002
100191.680 0.000 0.000 0.000 -0.014 -0.008 -0.002
100191.690 0.000 0.000 0.000 -0.014 -0.008 -0.002
100191.700 0.000 0.000 0.000 -0.014 -0.008 -0.002
100191.710 0.000 0.000 0.000 -0.014 -0.008 -0.002
100191.720 0.000 0.000 0.000 -0.014 -0.008 -0.002
100191.730 0.000 0.000 0.000 -0.014 -0.008 -0.002
100191.740 0.000 0.000 0.000 -0.014 -0.008 -0.002
100191.750 0.000 0.000 0.000 -0.014 -0.009 -0.002
100191.760 0.000 0.000 0.000 -0.014 -0.009 -0.002
100191.770 0.000 0.000 0.000 -0.014 -0.009 -0.002
100191.780 0.000 0.000 0.000 -0.014 -0.009 -0.002
100191.790 0.000 0.000 0.000 -0.014 -0.009 -0.002
100191.800 0.000 0.000 0.000 -0.014 -0.010 -0.002
100191.810 0.000 0.000 0.000 -0.014 -0.010 -0.002
100191.820 0.000 0.000 0.000 -0.014 -0.010 -0.002
100191.830 0.000 0.000 0.000 -0.014 -0.010 -0.002
100191.840 0.000 0.000 0.000 -0.014 -0.010 -0.002
100191.850 0.000 0.000 0.000 -0.013 -0.010 -0.002
100191.860 0.000 0.000 0.000 -0.013 -0.010 -0.002
100191.870 0.000 0.000 0.000 -0.013 -0.010 -0.002
100191.880 0.000 0.000 0.000 -0.013 -0.010 -0.002
100191.890 0.000 0.000 0.000 -0.013 -0.010 -0.002
100191.900 0.000 0.000 -0.000 -0.013 -0.011 -0.002
100191.910 0.000 0.000 -0.000 -0.013 -0.011 -0.002
100191.920 0.000 0.000 -0.000 -0.013 -0.011 -0.002
100191.930 0.000 0.000 -0.000 -0.013 -0.011 -0.002
100191.940 0.000 0.000 -0.000 -0.013 -0.011 -0.002
100191.950 0.000 0.000 -0.000 -0.013 -0.011 -0.002
100191.960 0.000 0.000 -0.000 -0.013 -0.011 -0.002
100191.970 0.000 0.000 -0.000 -0.013 -0.011 -0.002
100191.980 0.000 0.000 -0.000 -0.013 -0.011 -0.002
100191.990 0.000 0.000 -0.000 -0.013 -0.011 -0.002
100192.000 0.000 0.000 -0.000 -0.012 -0.012 -0.001
100192.010 0.000 0.000 -0.000 -0.012 -0.012 -0.001
100192.020 0.000 0.000 -0.000 -0.012 -0.012 -0.001
100192.030 0.000 0.000 -0.000 -0.012 -0.012 -0.001
100192.040 0.000 0.000 -0.000 -0.012 -0.012 -0.001
100192.050 0.000 0.000 -0.000 -0.012 -0.012 -0.001
100192.060 0.000 0.000 -0.000 -0.012 -0.012 -0.001
100192.070 0.000 0.000 -0.000 -0.012 -0.012 -0.001
100192.080 0.000 0.000 -0.000 -0.012 -0.012 -0.001
100192.090 0.000 0.000 -0.000 -0.012 -0.012 -0.001
100192.100 0.000 0.000 -0.000 -0.011 -0.013 -0.001
100192.110 0.000 0.000 -0.000 -0.011 -0.013 -0.001
100192.120 0.000 0.000 -0.000 -0.011 -0.013 -0.001
100192.130 0.000 0.000 -0.000 -0.011 -0.013 -0.001
100192.140 0.000 0.000 -0.000 -0.011 -0.013 -0.001
100192.150 0.000 0.000 -0.000 -0.010 -0.013 -0.001
100192.160 0.000 0.000 -0.000 -0.010 -0.013 -0.001
100192.170 0.000 0.000 -0.000 -0.010 -0.013 -0.001
100192.180 0.000 0.000 -0.000 -0.010 -0.013 -0.001
100192.190 0.000 0.000 -0.000 -0.010 -0.013 -0.001
100192.200 0.000 0.000 -0.000 -0.010 -0.014 -0.001
100192.210 0.000 0.000 -0.000 -0.010 -0.014 -0.001
100192.220 0.000 0.000 -0.000 -0.010 -0.014 -0.001
100192.230 0.000 0.000 -0.000 -0.010 -0.014 -0.001
100192.240 0.000 0.000 -0.000 -0.010 -0.014 -0.001
100192.250 0.000 0.000 -0.000 -0.009 -0.014 -0.001
100192.260 0.000 0.000 -0.000 -0.009 -0.014 -0.001
100192.270 0.000 0.000 -0.000 -0.009 -0.014 -0.001
100192.280 0.000 0.000 -0.000 -0.009 -0.014 -0.001
100192.290 0.000 0.000 -0.000 -0.009 -0.014 -0.001
100192.300 0.000 0.000 -0.000 -0.008 -0.014 -0.001
100192.310 0.000 0.000 -0.000 -0.008 -0.014 -0.001
100192.320 0.000 0.000 -0.000 -0.008 -0.014 -0.001
100192.330 0.000 0.000 -0.000 -0.008 -0.014 -0.001
100192.340 0.000 0.000 -0.000 -0.008 -0.014 -0.001
100192.350 0.000 0.000 -0.000 -0.008 -0.015 -0.001
100192.360 0.000 0.000 -0.000 -0.008 -0.015 -0.001
100192.370 0.000 0.000 -0.000 -0.008 -0.015 -0.001
100192.380 0.000 0.000 -0.000 -0.008 -0.015 -0.001
100192.390 0.000 0.000 -0.000 -0.008 -0.015 -0.001
100192.400 0.000 0.000 -0.000 -0.007 -0.015 -0.001
100192.410 0.000 0.000 -0.000 -0.007 -0.015 -0.001
100192.420 0.000 0.000 -0.000 -0.007 -0.015 -0.001
100192.430 0.000 0.000 -0.000 -0.007 -0.015 -0.001
100192.440 0.000 0.000 -0.000 -0.007 -0.015 -0.001
100192.450 0.000 0.000 0.000 -0.006 -0.015 -0.001
100192.460 0.000 0.000 0.000 -0.006 -0.015 -0.001
100192.470 0.000 0.000 0.000 -0.006 -0.015 -0.001
100192.480 0.000 0.000 0.000 -0.006 -0.015 -0.001
100192.490 0.000 0.000 0.000 -0.006 -0.015 -0.001
100192.500 0.000 0.000 0.000 -0.005 -0.016 -0.001
100192.510 0.000 0.000 0.000 -0.005 -0.016 -0.001
100192.520 0.000 0.000 0.000 -0.005 -0.016 -0.001
100192.530 0.000 0.000 0.000 -0.005 -0.016 -0.001
100192.540 0.000 0.000 0.000 -0.005 -0.016 -0.001
100192.550 0.000 0.000 0.000 -0.005 -0.016 -0.001
100192.560 0.000 0.000 0.000 -0.005 -0.016 -0.001
100192.570 0.000 0.000 0.000 -0.005 -0.016 -0.001
100192.580 0.000 0.000 0.000 -0.005 -0.016 -0.001
100192.590 0.000 0.000 0.000 -0.005 -0.016 -0.001
100192.600 0.000 0.000 0.000 -0.004 -0.016 -0.001
100192.610 0.000 0.000 0.000 -0.004 -0.016 -0.001
100192.620 0.000 0.000 0.000 -0.004 -0.016 -0.001
100192.630 0.000 0.000 0.000 -0.004 -0.016 -0.001
100192.640 0.000 0.000 0.000 -0.004 -0.016 -0.001
100192.650 0.000 0.000 0.000 -0.003 -0.016 -0.001
100192.660 0.000 0.000 0.000 -0.003 -0.016 -0.001
100192.670 0.000 0.000 0.000 -0.003 -0.016 -0.001
100192.680 0.000 0.000 0.000 -0.003 -0.016 -0.001
100192.690 0.000 0.000 0.000 -0.003 -0.016 -0.001
100192.700 0.000 0.000 0.000 -0.003 -0.016 -0.001
100192.710 0.000 0.000 0.000 -0.003 -0.016 -0.001
100192.720 0.000 0.000 0.000 -0.003 -0.016 -0.001
100192.730 0.000 0.000 0.000 -0.003 -0.016 -0.001
100192.740 0.000 0.000 0.000 -0.003 -0.016 -0.001
100192.750 0.000 0.000 0.000 -0.002 -0.017 -0.001
100192.760 0.000 0.000 0.000 -0.002 -0.017 -0.001
100192.770 0.000 0.000 0.000 -0.002 -0.017 -0.001
100192.780 0.000 0.000 0.000 -0.002 -0.017 -0.001
100192.790 0.000 0.000 0.000 -0.002 -0.017 -0.001
100192.800 0.000 0.000 0.000 -0.002 -0.017 -0.001
100192.810 0.000 0.000 0.000 -0.002 -0.017 -0.001
100192.820 0.000 0.000 0.000 -0.002 -0.017 -0.001
100192.830 0.000 0.000 0.000 -0.002 -0.017 -0.001
100192.840 0.000 0.000 0.000 -0.002 -0.017 -0.001
100192.850 0.000 0.000 0.000 -0.001 -0.017 -0.001
100192.860 0.000 0.000 0.000 -0.001 -0.017 -0.001
100192.870 0.000 0.000 0.000 -0.001 -0.017 -0.001
100192.880 0.000 0.000 0.000 -0.001 -0.017 -0.001
100192.890 0.000 0.000 0.000 -0.001 -0.017 -0.001
100192.900 0.000 0.000 0.000 -0.001 -0.017 -0.000
100192.910 0.000 0.000 0.000 -0.001 -0.017 -0.000
100192.920 0.000 0.000 0.000 -0.001 -0.017 -0.000
100192.930 0.000 0.000 0.000 -0.001 -0.017 -0.000
100192.940 0.000 0.000 0.000 -0.001 -0.017 -0.000
100192.950 0.000 0.000 0.000 -0.000 -0.017 -0.000
100192.960 0.000 0.000 0.000 -0.000 -0.017 -0.000
100192.970 0.000 0.000 0.000 -0.000 -0.017 -0.000
100192.980 0.000 0.000 0.000 -0.000 -0.017 -0.000
100192.990 0.000 0.000 0.000 -0.000 -0.017 -0.000
100193.000 0.000 0.000 0.000 0.000 -0.018 -0.001
100193.010 0.000 0.000 0.000 0.000 -0.018 -0.001
100193.020 0.000 0.000 0.000 0.000 -0.018 -0.001
100193.030 0.000 0.000 0.000 0.000 -0.018 -0.001
100193.040 0.000 0.000 0.000 0.000 -0.018 -0.001
100193.050 0.000 0.000 0.000 0.001 -0.018 -0.001
100193.060 0.000 0.000 0.000 0.001 -0.018 -0.001
100193.070 0.000 0.000 0.000 0.001 -0.018 -0.001
100193.080 0.000 0.000 0.000 0.001 -0.018 -0.001
100193.090 0.000 0.000 0.000 0.001 -0.018 -0.001
100193.100 0.000 0.000 0.000 0.001 -0.018 -0.001
100193.110 0.000 0.000 0.000 0.001 -0.018 -0.001
100193.120 0.000 0.000 0.000 0.001 -0.018 -0.001
100193.130 0.000 0.000 0.000 0.001 -0.018 -0.001
100193.140 0.000 0.000 0.000 0.001 -0.018 -0.001
100193.150 0.000 0.000 0.000 0.001 -0.018 -0.001
100193.160 0.000 0.000 0.000 0.001 -0.018 -0.001
100193.170 0.000 0.000 0.000 0.001 -0.018 -0.001
100193.180 0.000 0.000 0.000 0.001 -0.018 -0.001
100193.190 0.000 0.000 0.000 0.001 -0.018 -0.001
100193.200 0.000 0.000 0.000 0.002 -0.018 -0.001
100193.210 0.000 0.000 0.000 0.002 -0.018 -0.001
100193.220 0.000 0.000 0.000 0.002 -0.018 -0.001
100193.230 0.000 0.000 0.000 0.002 -0.018 -0.001
100193.240 0.000 0.000 0.000 0.002 -0.018 -0.001
100193.250 0.000 0.000 0.000 0.002 -0.018 -0.001
100193.260 0.000 0.000 0.000 0.002 -0.018 -0.001
100193.270 0.000 0.000 0.000 0.002 -0.018 -0.001
100193.280 0.000 0.000 0.000 0.002 -0.018 -0.001
100193.290 0.000 0.000 0.000 0.002 -0.018 -0.001
100193.300 0.000 0.000 0.000 0.002 -0.018 -0.001
100193.310 0.000 0.000 0.000 0.002 -0.018 -0.001
100193.320 0.000 0.000 0.000 0.002 -0.018 -0.001
100193.330 0.000 0.000 0.000 0.002 -0.018 -0.001
100193.340 0.000 0.000 0.000 0.002 -0.018 -0.001
100193.350 0.000 0.000 0.000 0.002 -0.018 -0.001
100193.360 0.000 0.000 0.000 0.002 -0.018 -0.001
100193.370 0.000 0.000 0.000 0.002 -0.018 -0.001
100193.380 0.000 0.000 0.000 0.002 -0.018 -0.001
100193.390 0.000 0.000 0.000 0.002 -0.018 -0.001
100193.400 0.000 0.000 0.000 0.003 -0.018 -0.001
100193.410 0.000 0.000 0.000 0.003 -0.018 -0.001
100193.420 0.000 0.000 0.000 0.003 -0.018 -0.001
100193.430 0.000 0.000 0.000 0.003 -0.018 -0.001
100193.440 0.000 0.000 0.000 0.003 -0.018 -0.001
100193.450 0.000 0.000 0.000 0.003 -0.018 -0.001
100193.460 0.000 0.000 0.000 0.003 -0.018 -0.001
100193.470 0.000 0.000 0.000 0.003 -0.018 -0.001
100193.480 0.000 0.000 0.000 0.003 -0.018 -0.001
100193.490 0.000 0.000 0.000 0.003 -0.018 -0.001
100193.500 0.000 0.000 0.000 0.003 -0.018 -0.002
100193.510 0.000 0.000 0.000 0.003 -0.018 -0.002
100193.520 0.000 0.000 0.000 0.003 -0.018 -0.002
100193.530 0.000 0.000 0.000 0.003 -0.018 -0.002
100193.540 0.000 0.000 0.000 0.003 -0.018 -0.002
100193.550 0.000 0.000 0.000 0.004 -0.018 -0.002
100193.560 0.000 0.000 0.000 0.004 -0.018 -0.002
100193.570 0.000 0.000 0.000 0.004 -0.018 -0.002
100193.580 0.000 0.000 0.000 0.004 -0.018 -0.002
100193.590 0.000 0.000 0.000 0.004 -0.018 -0.002
100193.600 0.000 0.000 0.000 0.004 -0.019 -0.002
100193.610 0.000 0.000 0.000 0.004 -0.019 -0.002
100193.620 0.000 0.000 0.000 0.004 -0.019 -0.002
100193.630 0.000 0.000 0.000 0.004 -0.019 -0.002
100193.640 0.000 0.000 0.000 0.004 -0.019 -0.002
100193.650 0.000 0.000 0.000 0.004 -0.019 -0.002
100193.660 0.000 0.000 0.000 0.004 -0.019 -0.002
100193.670 0.000 0.000 0.000 0.004 -0.019 -0.002
100193.680 0.000 0.000 0.000 0.004 -0.019 -0.002
100193.690 0.000 0.000 0.000 0.004 -0.019 -0.002
100193.700 0.000 0.000 0.000 0.004 -0.019 -0.002
100193.710 0.000 0.000 0.000 0.004 -0.019 -0.002
100193.720 0.000 0.000 0.000 0.004 -0.019 -0.002
100193.730 0.000 0.000 0.000 0.004 -0.019 -0.002
100193.740 0.000 0.000 0.000 0.004 -0.019 -0.002
100193.750 0.000 0.000 0.000 0.005 -0.019 -0.002
100193.760 0.000 0.000 0.000 0.005 -0.019 -0.002
100193.770 0.000 0.000 0.000 0.005 -0.019 -0.002
100193.780 0.000 0.000 0.000 0.005 -0.019 -0.002
100193.790 0.000 0.000 0.000 0.005 -0.019 -0.002
100193.800 0.000 0.000 0.000 0.005 -0.019 -0.002
100193.810 0.000 0.000 0.000 0.005 -0.019 -0.002
100193.820 0.000 0.000 0.000 0.005 -0.019 -0.002
100193.830 0.000 0.000 0.000 0.005 -0.019 -0.002
100193.840 0.000 0.000 0.000 0.005 -0.019 -0.002
100193.850 0.000 0.000 0.000 0.006 -0.019 -0.002
100193.860 0.000 0.000 0.000 0.006 -0.019 -0.002
100193.870 0.000 0.000 0.000 0.006 -0.019 -0.002
100193.880 0.000 0.000 0.000 0.006 -0.019 -0.002
100193.890 0.000 0.000 0.000 0.006 -0.019 -0.002
100193.900 0.000 0.000 0.000 0.006 -0.019 -0.002
100193.910 0.000 0.000 0.000 0.006 -0.019 -0.002
100193.920 0.000 0.000 0.000 0.006 -0.019 -0.002
100193.930 0.000 0.000 0.000 0.006 -0.019 -0.002
100193.940 0.000 0.000 0.000 0.006 -0.019 -0.002
100193.950 0.000 0.000 0.000 0.007 -0.019 -0.002
100193.960 0.000 0.000 0.000 0.007 -0.019 -0.002
100193.970 0.000 0.000 0.000 0.007 -0.019 -0.002
100193.980 0.000 0.000 0.000 0.007 -0.019 -0.002
100193.990 0.000 0.000 0.000 0.007 -0.019 -0.002
100194.000 0.000 0.000 0.000 0.007 -0.019 -0.002
100194.010 0.000 0.000 0.000 0.007 -0.019 -0.002
100194.020 0.000 0.000 0.000 0.007 -0.019 -0.002
100194.030 0.000 0.000 0.000 0.007 -0.019 -0.002
100194.040 0.000 0.000 0.000 0.007 -0.019 -0.002
100194.050 0.000 0.000 0.000 0.007 -0.019 -0.002
100194.060 0.000 0.000 0.000 0.007 -0.019 -0.002
100194.070 0.000 0.000 0.000 0.007 -0.019 -0.002
100194.080 0.000 0.000 0.000 0.007 -0.019 -0.002
100194.090 0.000 0.000 0.000 0.007 -0.019 -0.002
100194.100 0.000 0.000 0.000 0.007 -0.019 -0.002
100194.110 0.000 0.000 0.000 0.007 -0.019 -0.002
100194.120 0.000 0.000 0.000 0.007 -0.019 -0.002
100194.130 0.000 0.000 0.000 0.007 -0.019 -0.002
100194.140 0.000 0.000 0.000 0.007 -0.019 -0.002
100194.150 0.000 0.000 0.000 0.007 -0.019 -0.002
100194.160 0.000 0.000 0.000 0.007 -0.019 -0.002
100194.170 0.000 0.000 0.000 0.007 -0.019 -0.002
100194.180 0.000 0.000 0.000 0.007 -0.019 -0.002
100194.190 0.000 0.000 0.000 0.007 -0.019 -0.002
100194.200 0.000 0.000 0.000 0.007 -0.019 -0.002
100194.210 0.000 0.000 0.000 0.007 -0.019 -0.002
100194.220 0.000 0.000 0.000 0.007 -0.019 -0.002
100194.230 0.000 0.000 0.000 0.007 -0.019 -0.002
100194.240 0.000 0.000 0.000 0.007 -0.019 -0.002
100194.250 0.000 0.000 0.000 0.007 -0.019 -0.002
100194.260 0.000 0.000 0.000 0.007 -0.019 -0.002
100194.270 0.000 0.000 0.000 0.007 -0.019 -0.002
100194.280 0.000 0.000 0.000 0.007 -0.019 -0.002
100194.290 0.000 0.000 0.000 0.007 -0.019 -0.002
100194.300 0.000 0.000 0.000 0.007 -0.019 -0.002
100194.310 0.000 0.000 0.000 0.007 -0.019 -0.002
100194.320 0.000 0.000 0.000 0.007 -0.019 -0.002
100194.330 0.000 0.000 0.000 0.007 -0.019 -0.002
100194.340 0.000 0.000 0.000 0.007 -0.019 -0.002
100194.350 0.000 0.000 0.000 0.007 -0.019 -0.001
100194.360 0.000 0.000 0.000 0.007 -0.019 -0.001
100194.370 0.000 0.000 0.000 0.007 -0.019 -0.001
100194.380 0.000 0.000 0.000 0.007 -0.019 -0.001
100194.390 0.000 0.000 0.000 0.007 -0.019 -0.001
100194.400 0.000 0.000 0.000 0.007 -0.019 -0.001
100194.410 0.000 0.000 0.000 0.007 -0.019 -0.001
100194.420 0.000 0.000 0.000 0.007 -0.019 -0.001
100194.430 0.000 0.000 0.000 0.007 -0.019 -0.001
100194.440 0.000 0.000 0.000 0.007 -0.019 -0.001
100194.450 0.000 0.000 0.000 0.008 -0.020 -0.001
100194.460 0.000 0.000 0.000 0.008 -0.020 -0.001
100194.470 0.000 0.000 0.000 0.008 -0.020 -0.001
100194.480 0.000 0.000 0.000 0.008 -0.020 -0.001
100194.490 0.000 0.000 0.000 0.008 -0.020 -0.001
100194.500 0.000 0.000 0.000 0.008 -0.020 -0.001
100194.510 0.000 0.000 0.000 0.008 -0.020 -0.001
100194.520 0.000 0.000 0.000 0.008 -0.020 -0.001
100194.530 0.000 0.000 0.000 0.008 -0.020 -0.001
100194.540 0.000 0.000 0.000 0.008 -0.020 -0.001
100194.550 0.000 0.000 0.000 0.008 -0.020 -0.001
100194.560 0.000 0.000 0.000 0.008 -0.020 -0.001
100194.570 0.000 0.000 0.000 0.008 -0.020 -0.001
100194.580 0.000 0.000 0.000 0.008 -0.020 -0.001
100194.590 0.000 0.000 0.000 0.008 -0.020 -0.001
100194.600 0.000 0.000 0.000 0.009 -0.020 -0.001
100194.610 0.000 0.000 0.000 0.009 -0.020 -0.001
100194.620 0.000 0.000 0.000 0.009 -0.020 -0.001
100194.630 0.000 0.000 0.000 0.009 -0.020 -0.001
100194.640 0.000 0.000 0.000 0.009 -0.020 -0.001
100194.650 0.000 0.000 0.000 0.009 -0.020 -0.001
100194.660 0.000 0.000 0.000 0.009 -0.020 -0.001
100194.670 0.000 0.000 0.000 0.009 -0.020 -0.001
100194.680 0.000 0.000 0.000 0.009 -0.020 -0.001
100194.690 0.000 0.000 0.000 0.009 -0.020 -0.001
100194.700 0.000 0.000 0.000 0.010 -0.020 -0.001
100194.710 0.000 0.000 0.000 0.010 -0.020 -0.001
100194.720 0.000 0.000 0.000 0.010 -0.020 -0.001
100194.730 0.000 0.000 0.000 0.010 -0.020 -0.001
100194.740 0.000 0.000 0.000 0.010 -0.020 -0.001
100194.750 0.000 0.000 0.000 0.011 -0.020 -0.001
100194.760 0.000 0.000 0.000 0.011 -0.020 -0.001
100194.770 0.000 0.000 0.000 0.011 -0.020 -0.001
100194.780 0.000 0.000 0.000 0.011 -0.020 -0.001
100194.790 0.000 0.000 0.000 0.011 -0.020 -0.001
100194.800 0.000 0.000 0.000 0.011 -0.020 -0.001
100194.810 0.000 0.000 0.000 0.011 -0.020 -0.001
100194.820 0.000 0.000 0.000 0.011 -0.020 -0.001
100194.830 0.000 0.000 0.000 0.011 -0.020 -0.001
100194.840 0.000 0.000 0.000 0.011 -0.020 -0.001
100194.850 0.000 0.000 0.000 0.012 -0.020 -0.001
100194.860 0.000 0.000 0.000 0.012 -0.020 -0.001
100194.870 0.000 0.000 0.000 0.012 -0.020 -0.001
100194.880 0.000 0.000 0.000 0.012 -0.020 -0.001
100194.890 0.000 0.000 0.000 0.012 -0.020 -0.001
100194.900 0.000 0.000 0.000 0.013 -0.019 -0.001
100194.910 0.000 0.000 0.000 0.013 -0.019 -0.001
100194.920 0.000 0.000 0.000 0.013 -0.019 -0.001
100194.930 0.000 0.000 0.000 0.013 -0.019 -0.001
100194.940 0.000 0.000 0.000 0.013 -0.019 -0.001
100194.950 0.000 0.000 0.000 0.013 -0.019 -0.001
100194.960 0.000 0.000 0.000 0.013 -0.019 -0.001
100194.970 0.000 0.000 0.000 0.013 -0.019 -0.001
100194.980 0.000 0.000 0.000 0.013 -0.019 -0.001
100194.990 0.000 0.000 0.000 0.013 -0.019 -0.001
100195.000 0.000 0.000 0.000 0.014 -0.019 -0.001
100195.010 0.000 0.000 0.000 0.014 -0.019 -0.001
100195.020 0.000 0.000 0.000 0.014 -0.019 -0.001
100195.030 0.000 0.000 0.000 0.014 -0.019 -0.001
100195.040 0.000 0.000 0.000 0.014 -0.019 -0.001
100195.050 0.000 0.000 0.000 0.014 -0.019 -0.001
100195.060 0.000 0.000 0.000 0.014 -0.019 -0.001
100195.070 0.000 0.000 0.000 0.014 -0.019 -0.001
100195.080 0.000 0.000 0.000 0.014 -0.019 -0.001
100195.090 0.000 0.000 0.000 0.014 -0.019 -0.001
100195.100 0.000 0.000 0.000 0.014 -0.018 -0.001
100195.110 0.000 0.000 0.000 0.014 -0.018 -0.001
100195.120 0.000 0.000 0.000 0.014 -0.018 -0.001
100195.130 0.000 0.000 0.000 0.014 -0.018 -0.001
100195.140 0.000 0.000 0.000 0.014 -0.018 -0.001
100195.150 0.000 0.000 -0.000 0.015 -0.018 -0.001
100195.160 0.000 0.000 -0.000 0.015 -0.018 -0.001
100195.170 0.000 0.000 -0.000 0.015 -0.018 -0.001
100195.180 0.000 0.000 -0.000 0.015 -0.018 -0.001
100195.190 0.000 0.000 -0.000 0.015 -0.018 -0.001
100195.200 0.000 0.000 -0.000 0.015 -0.018 -0.001
100195.210 0.000 0.000 -0.000 0.015 -0.018 -0.001
100195.220 0.000 0.000 -0.000 0.015 -0.018 -0.001
100195.230 0.000 0.000 -0.000 0.015 -0.018 -0.001
100195.240 0.000 0.000 -0.000 0.015 -0.018 -0.001
100195.250 0.000 0.000 -0.000 0.016 -0.018 -0.000
100195.260 0.000 0.000 -0.000 0.016 -0.018 -0.000
100195.270 0.000 0.000 -0.000 0.016 -0.018 -0.000
100195.280 0.000 0.000 -0.000 0.016 -0.018 -0.000
100195.290 0.000 0.000 -0.000 0.016 -0.018 -0.000
100195.300 0.000 0.000 -0.000 0.016 -0.018 -0.000
100195.310 0.000 0.000 -0.000 0.016 -0.018 -0.000
100195.320 0.000 0.000 -0.000 0.016 -0.018 -0.000
100195.330 0.000 0.000 -0.000 0.016 -0.018 -0.000
100195.340 0.000 0.000 -0.000 0.016 -0.018 -0.000
100195.350 0.000 0.000 0.000 0.016 -0.018 -0.000
100195.360 0.000 0.000 0.000 0.016 -0.018 -0.000
100195.370 0.000 0.000 0.000 0.016 -0.018 -0.000
100195.380 0.000 0.000 0.000 0.016 -0.018 -0.000
100195.390 0.000 0.000 0.000 0.016 -0.018 -0.000
100195.400 0.000 0.000 0.000 0.017 -0.018 -0.000
100195.410 0.000 0.000 0.000 0.017 -0.018 -0.000
100195.420 0.000 0.000 0.000 0.017 -0.018 -0.000
100195.430 0.000 0.000 0.000 0.017 -0.018 -0.000
100195.440 0.000 0.000 0.000 0.017 -0.018 -0.000
100195.450 0.000 0.000 0.000 0.017 -0.018 -0.000
100195.460 0.000 0.000 0.000 0.017 -0.018 -0.000
100195.470 0.000 0.000 0.000 0.017 -0.018 -0.000
100195.480 0.000 0.000 0.000 0.017 -0.018 -0.000
100195.490 0.000 0.000 0.000 0.017 -0.018 -0.000
100195.500 0.000 0.000 0.000 0.017 -0.018 -0.000
100195.510 0.000 0.000 0.000 0.017 -0.018 -0.000
100195.520 0.000 0.000 0.000 0.017 -0.018 -0.000
100195.530 0.000 0.000 0.000 0.017 -0.018 -0.000
100195.540 0.000 0.000 0.000 0.017 -0.018 -0.000
100195.550 0.000 0.000 0.000 0.017 -0.018 -0.000
100195.560 0.000 0.000 0.000 0.017 -0.018 -0.000
100195.570 0.000 0.000 0.000 0.017 -0.018 -0.000
100195.580 0.000 0.000 0.000 0.017 -0.018 -0.000
100195.590 0.000 0.000 0.000 0.017 -0.018 -0.000
100195.600 0.000 0.000 0.000 0.017 -0.018 -0.000
100195.610 0.000 0.000 0.000 0.017 -0.018 -0.000
100195.620 0.000 0.000 0.000 0.017 -0.018 -0.000
100195.630 0.000 0.000 0.000 0.017 -0.018 -0.000
100195.640 0.000 0.000 0.000 0.017 -0.018 -0.000
100195.650 0.000 0.000 0.000 0.017 -0.018 -0.000
100195.660 0.000 0.000 0.000 0.017 -0.018 -0.000
100195.670 0.000 0.000 0.000 0.017 -0.018 -0.000
100195.680 0.000 0.000 0.000 0.017 -0.018 -0.000
100195.690 0.000 0.000 0.000 0.017 -0.018 -0.000
100195.700 0.000 0.000 0.000 0.017 -0.018 -0.000
100195.710 0.000 0.000 0.000 0.017 -0.018 -0.000
100195.720 0.000 0.000 0.000 0.017 -0.018 -0.000
100195.730 0.000 0.000 0.000 0.017 -0.018 -0.000
100195.740 0.000 0.000 0.000 0.017 -0.018 -0.000
100195.750 0.000 0.000 0.000 0.017 -0.018 -0.000
100195.760 0.000 0.000 0.000 0.017 -0.018 -0.000
100195.770 0.000 0.000 0.000 0.017 -0.018 -0.000
100195.780 0.000 0.000 0.000 0.017 -0.018 -0.000
100195.790 0.000 0.000 0.000 0.017 -0.018 -0.000
100195.800 0.000 0.000 0.000 0.017 -0.018 -0.000
100195.810 0.000 0.000 0.000 0.017 -0.018 -0.000
100195.820 0.000 0.000 0.000 0.017 -0.018 -0.000
100195.830 0.000 0.000 0.000 0.017 -0.018 -0.000
100195.840 0.000 0.000 0.000 0.017 -0.018 -0.000
100195.850 0.000 0.000 0.000 0.016 -0.018 -0.000
100195.860 0.000 0.000 0.000 0.016 -0.018 -0.000
100195.870 0.000 0.000 0.000 0.016 -0.018 -0.000
100195.880 0.000 0.000 0.000 0.016 -0.018 -0.000
100195.890 0.000 0.000 0.000 0.016 -0.018 -0.000
100195.900 0.000 0.000 0.000 0.016 -0.018 -0.000
100195.910 0.000 0.000 0.000 0.016 -0.018 -0.000
100195.920 0.000 0.000 0.000 0.016 -0.018 -0.000
100195.930 0.000 0.000 0.000 0.016 -0.018 -0.000
100195.940 0.000 0.000 0.000 0.016 -0.018 -0.000
100195.950 0.000 0.000 0.000 0.016 -0.018 -0.000
100195.960 0.000 0.000 0.000 0.016 -0.018 -0.000
100195.970 0.000 0.000 0.000 0.016 -0.018 -0.000
100195.980 0.000 0.000 0.000 0.016 -0.018 -0.000
100195.990 0.000 0.000 0.000 0.016 -0.018 -0.000
100196.000 0.000 0.000 0.000 0.016 -0.018 -0.000
100196.010 0.000 0.000 0.000 0.016 -0.018 -0.000
100196.020 0.000 0.000 0.000 0.016 -0.018 -0.000
100196.030 0.000 0.000 0.000 0.016 -0.018 -0.000
100196.040 0.000 0.000 0.000 0.016 -0.018 -0.000
100196.050 0.000 0.000 0.000 0.016 -0.018 -0.000
100196.060 0.000 0.000 0.000 0.016 -0.018 -0.000
100196.070 0.000 0.000 0.000 0.016 -0.018 -0.000
100196.080 0.000 0.000 0.000 0.016 -0.018 -0.000
100196.090 0.000 0.000 0.000 0.016 -0.018 -0.000
100196.100 0.000 0.000 0.000 0.015 -0.018 -0.000
100196.110 0.000 0.000 0.000 0.015 -0.018 -0.000
100196.120 0.000 0.000 0.000 0.015 -0.018 -0.000
100196.130 0.000 0.000 0.000 0.015 -0.018 -0.000
100196.140 0.000 0.000 0.000 0.015 -0.018 -0.000
100196.150 0.000 0.000 0.000 0.015 -0.019 -0.000
100196.160 0.000 0.000 0.000 0.015 -0.019 -0.000
100196.170 0.000 0.000 0.000 0.015 -0.019 -0.000
100196.180 0.000 0.000 0.000 0.015 -0.019 -0.000
100196.190 0.000 0.000 0.000 0.015 -0.019 -0.000
100196.200 0.000 0.000 0.000 0.015 -0.019 -0.000
100196.210 0.000 0.000 0.000 0.015 -0.019 -0.000
100196.220 0.000 0.000 0.000 0.015 -0.019 -0.000
100196.230 0.000 0.000 0.000 0.015 -0.019 -0.000
100196.240 0.000 0.000 0.000 0.015 -0.019 -0.000
100196.250 0.000 0.000 0.000 0.014 -0.019 -0.000
100196.260 0.000 0.000 0.000 0.014 -0.019 -0.000
100196.270 0.000 0.000 0.000 0.014 -0.019 -0.000
100196.280 0.000 0.000 0.000 0.014 -0.019 -0.000
100196.290 0.000 0.000 0.000 0.014 -0.019 -0.000
100196.300 0.000 0.000 0.000 0.014 -0.019 -0.001
100196.310 0.000 0.000 0.000 0.014 -0.019 -0.001
100196.320 0.000 0.000 0.000 0.014 -0.019 -0.001
100196.330 0.000 0.000 0.000 0.014 -0.019 -0.001
100196.340 0.000 0.000 0.000 0.014 -0.019 -0.001
100196.350 0.000 0.000 0.000 0.013 -0.019 -0.001
100196.360 0.000 0.000 0.000 0.013 -0.019 -0.001
100196.370 0.000 0.000 0.000 0.013 -0.019 -0.001
100196.380 0.000 0.000 0.000 0.013 -0.019 -0.001
100196.390 0.000 0.000 0.000 0.013 -0.019 -0.001
100196.400 0.000 0.000 0.000 0.013 -0.019 -0.001
100196.410 0.000 0.000 0.000 0.013 -0.019 -0.001
100196.420 0.000 0.000 0.000 0.013 -0.019 -0.001
100196.430 0.000 0.000 0.000 0.013 -0.019 -0.001
100196.440 0.000 0.000 0.000 0.013 -0.019 -0.001
100196.450 0.000 0.000 0.000 0.012 -0.019 -0.001
100196.460 0.000 0.000 0.000 0.012 -0.019 -0.001
100196.470 0.000 0.000 0.000 0.012 -0.019 -0.001
100196.480 0.000 0.000 0.000 0.012 -0.019 -0.001
100196.490 0.000 0.000 0.000 0.012 -0.019 -0.001
100196.500 0.000 0.000 0.000 0.012 -0.019 -0.001
100196.510 0.000 0.000 0.000 0.012 -0.019 -0.001
100196.520 0.000 0.000 0.000 0.012 -0.019 -0.001
100196.530 0.000 0.000 0.000 0.012 -0.019 -0.001
100196.540 0.000 0.000 0.000 0.012 -0.019 -0.001
100196.550 0.000 0.000 0.000 0.012 -0.019 -0.001
100196.560 0.000 0.000 0.000 0.012 -0.019 -0.001
100196.570 0.000 0.000 0.000 0.012 -0.019 -0.001
100196.580 0.000 0.000 0.000 0.012 -0.019 -0.001
100196.590 0.000 0.000 0.000 0.012 -0.019 -0.001
100196.600 0.000 0.000 0.000 0.011 -0.019 -0.001
100196.610 0.000 0.000 0.000 0.011 -0.019 -0.001
100196.620 0.000 0.000 0.000 0.011 -0.019 -0.001
100196.630 0.000 0.000 0.000 0.011 -0.019 -0.001
100196.640 0.000 0.000 0.000 0.011 -0.019 -0.001
100196.650 0.000 0.000 0.000 0.011 -0.019 -0.001
100196.660 0.000 0.000 0.000 0.011 -0.019 -0.001
100196.670 0.000 0.000 0.000 0.011 -0.019 -0.001
100196.680 0.000 0.000 0.000 0.011 -0.019 -0.001
100196.690 0.000 0.000 0.000 0.011 -0.019 -0.001
100196.700 0.000 0.000 0.000 0.011 -0.020 -0.001
100196.710 0.000 0.000 0.000 0.011 -0.020 -0.001
100196.720 0.000 0.000 0.000 0.011 -0.020 -0.001
100196.730 0.000 0.000 0.000 0.011 -0.020 -0.001
100196.740 0.000 0.000 0.000 0.011 -0.020 -0.001
100196.750 0.000 0.000 0.000 0.011 -0.020 -0.002
100196.760 0.000 0.000 0.000 0.011 -0.020 -0.002
100196.770 0.000 0.000 0.000 0.011 -0.020 -0.002
100196.780 0.000 0.000 0.000 0.011 -0.020 -0.002
100196.790 0.000 0.000 0.000 0.011 -0.020 -0.002
100196.800 0.000 0.000 0.000 0.010 -0.020 -0.002
100196.810 0.000 0.000 0.000 0.010 -0.020 -0.002
100196.820 0.000 0.000 0.000 0.010 -0.020 -0.002
100196.830 0.000 0.000 0.000 0.010 -0.020 -0.002
100196.840 0.000 0.000 0.000 0.010 -0.020 -0.002
100196.850 0.000 0.000 0.000 0.010 -0.020 -0.002
100196.860 0.000 0.000 0.000 0.010 -0.020 -0.002
100196.870 0.000 0.000 0.000 0.010 -0.020 -0.002
100196.880 0.000 0.000 0.000 0.010 -0.020 -0.002
100196.890 0.000 0.000 0.000 0.010 -0.020 -0.002
100196.900 0.000 0.000 0.000 0.009 -0.020 -0.002
100196.910 0.000 0.000 0.000 0.009 -0.020 -0.002
100196.920 0.000 0.000 0.000 0.009 -0.020 -0.002
100196.930 0.000 0.000 0.000 0.009 -0.020 -0.002
100196.940 0.000 0.000 0.000 0.009 -0.020 -0.002
100196.950 0.000 0.000 0.000 0.009 -0.020 -0.002
100196.960 0.000 0.000 0.000 0.009 -0.020 -0.002
100196.970 0.000 0.000 0.000 0.009 -0.020 -0.002
100196.980 0.000 0.000 0.000 0.009 -0.020 -0.002
100196.990 0.000 0.000 0.000 0.009 -0.020 -0.002
100197.000 0.000 0.000 0.000 0.008 -0.020 -0.002
100197.010 0.000 0.000 0.000 0.008 -0.020 -0.002
100197.020 0.000 0.000 0.000 0.008 -0.020 -0.002
100197.030 0.000 0.000 0.000 0.008 -0.020 -0.002
100197.040 0.000 0.000 0.000 0.008 -0.020 -0.002
100197.050 0.000 0.000 0.000 0.008 -0.020 -0.003
100197.060 0.000 0.000 0.000 0.008 -0.020 -0.003
100197.070 0.000 0.000 0.000 0.008 -0.020 -0.003
100197.080 0.000 0.000 0.000 0.008 -0.020 -0.003
100197.090 0.000 0.000 0.000 0.008 -0.020 -0.003
100197.100 0.000 0.000 0.000 0.007 -0.020 -0.003
100197.110 0.000 0.000 0.000 0.007 -0.020 -0.003
100197.120 0.000 0.000 0.000 0.007 -0.020 -0.003
100197.130 0.000 0.000 0.000 0.007 -0.020 -0.003
100197.140 0.000 0.000 0.000 0.007 -0.020 -0.003
100197.150 0.000 0.000 0.000 0.007 -0.020 -0.003
100197.160 0.000 0.000 0.000 0.007 -0.020 -0.003
100197.170 0.000 0.000 0.000 0.007 -0.020 -0.003
100197.180 0.000 0.000 0.000 0.007 -0.020 -0.003
100197.190 0.000 0.000 0.000 0.007 -0.020 -0.003
100197.200 0.000 0.000 0.000 0.006 -0.020 -0.003
100197.210 0.000 0.000 0.000 0.006 -0.020 -0.003
100197.220 0.000 0.000 0.000 0.006 -0.020 -0.003
100197.230 0.000 0.000 0.000 0.006 -0.020 -0.003
100197.240 0.000 0.000 0.000 0.006 -0.020 -0.003
100197.250 0.000 0.000 0.000 0.006 -0.020 -0.003
100197.260 0.000 0.000 0.000 0.006 -0.020 -0.003
100197.270 0.000 0.000 0.000 0.006 -0.020 -0.003
100197.280 0.000 0.000 0.000 0.006 -0.020 -0.003
100197.290 0.000 0.000 0.000 0.006 -0.020 -0.003
100197.300 0.000 0.000 0.000 0.005 -0.020 -0.004
100197.310 0.000 0.000 0.000 0.005 -0.020 -0.004
100197.320 0.000 0.000 0.000 0.005 -0.020 -0.004
100197.330 0.000 0.000 0.000 0.005 -0.020 -0.004
100197.340 0.000 0.000 0.000 0.005 -0.020 -0.004
100197.350 0.000 0.000 0.000 0.005 -0.020 -0.004
100197.360 0.000 0.000 0.000 0.005 -0.020 -0.004
100197.370 0.000 0.000 0.000 0.005 -0.020 -0.004
100197.380 0.000 0.000 0.000 0.005 -0.020 -0.004
100197.390 0.000 0.000 0.000 0.005 -0.020 -0.004
100197.400 0.000 0.000 0.000 0.004 -0.020 -0.004
100197.410 0.000 0.000 0.000 0.004 -0.020 -0.004
100197.420 0.000 0.000 0.000 0.004 -0.020 -0.004
100197.430 0.000 0.000 0.000 0.004 -0.020 -0.004
100197.440 0.000 0.000 0.000 0.004 -0.020 -0.004
100197.450 0.000 0.000 0.000 0.004 -0.020 -0.004
100197.460 0.000 0.000 0.000 0.004 -0.020 -0.004
100197.470 0.000 0.000 0.000 0.004 -0.020 -0.004
100197.480 0.000 0.000 0.000 0.004 -0.020 -0.004
100197.490 0.000 0.000 0.000 0.004 -0.020 -0.004
100197.500 0.000 0.000 0.000 0.003 -0.020 -0.005
100197.510 0.000 0.000 0.000 0.003 -0.020 -0.005
100197.520 0.000 0.000 0.000 0.003 -0.020 -0.005
100197.530 0.000 0.000 0.000 0.003 -0.020 -0.005
100197.540 0.000 0.000 0.000 0.003 -0.020 -0.005
100197.550 0.000 0.000 0.000 0.003 -0.019 -0.005
100197.560 0.000 0.000 0.000 0.003 -0.019 -0.005
100197.570 0.000 0.000 0.000 0.003 -0.019 -0.005
100197.580 0.000 0.000 0.000 0.003 -0.019 -0.005
100197.590 0.000 0.000 0.000 0.003 -0.019 -0.005
100197.600 0.000 0.000 0.000 0.002 -0.019 -0.005
100197.610 0.000 0.000 0.000 0.002 -0.019 -0.005
100197.620 0.000 0.000 0.000 0.002 -0.019 -0.005
100197.630 0.000 0.000 0.000 0.002 -0.019 -0.005
100197.640 0.000 0.000 0.000 0.002 -0.019 -0.005
100197.650 0.000 0.000 0.000 0.002 -0.019 -0.006
100197.660 0.000 0.000 0.000 0.002 -0.019 -0.006
100197.670 0.000 0.000 0.000 0.002 -0.019 -0.006
100197.680 0.000 0.000 0.000 0.002 -0.019 -0.006
100197.690 0.000 0.000 0.000 0.002 -0.019 -0.006
100197.700 0.000 0.000 0.000 0.001 -0.019 -0.006
100197.710 0.000 0.000 0.000 0.001 -0.019 -0.006
100197.720 0.000 0.000 0.000 0.001 -0.019 -0.006
100197.730 0.000 0.000 0.000 0.001 -0.019 -0.006
100197.740 0.000 0.000 0.000 0.001 -0.019 -0.006
100197.750 0.000 0.000 0.000 0.001 -0.019 -0.006
100197.760 0.000 0.000 0.000 0.001 -0.019 -0.006
100197.770 0.000 0.000 0.000 0.001 -0.019 -0.006
100197.780 0.000 0.000 0.000 0.001 -0.019 -0.006
100197.790 0.000 0.000 0.000 0.001 -0.019 -0.006
100197.800 -0.000 0.000 0.000 0.000 -0.019 -0.006
100197.810 -0.000 0.000 0.000 0.000 -0.019 -0.006
100197.820 -0.000 0.000 0.000 0.000 -0.019 -0.006
100197.830 -0.000 0.000 0.000 0.000 -0.019 -0.006
100197.840 -0.000 0.000 0.000 0.000 -0.019 -0.006
100197.850 -0.000 0.000 0.000 -0.000 -0.018 -0.007
100197.860 -0.000 0.000 0.000 -0.000 -0.018 -0.007
100197.870 -0.000 0.000 0.000 -0.000 -0.018 -0.007
100197.880 -0.000 0.000 0.000 -0.000 -0.018 -0.007
100197.890 -0.000 0.000 0.000 -0.000 -0.018 -0.007
100197.900 -0.000 0.000 0.000 -0.001 -0.018 -0.007
100197.910 -0.000 0.000 0.000 -0.001 -0.018 -0.007
100197.920 -0.000 0.000 0.000 -0.001 -0.018 -0.007
100197.930 -0.000 0.000 0.000 -0.001 -0.018 -0.007
100197.940 -0.000 0.000 0.000 -0.001 -0.018 -0.007
100197.950 -0.000 0.000 0.000 -0.001 -0.018 -0.007
100197.960 -0.000 0.000 0.000 -0.001 -0.018 -0.007
100197.970 -0.000 0.000 0.000 -0.001 -0.018 -0.007
100197.980 -0.000 0.000 0.000 -0.001 -0.018 -0.007
100197.990 -0.000 0.000 0.000 -0.001 -0.018 -0.007
100198.000 -0.000 0.000 0.000 -0.002 -0.018 -0.008
100198.010 -0.000 0.000 0.000 -0.002 -0.018 -0.008
100198.020 -0.000 0.000 0.000 -0.002 -0.018 -0.008
100198.030 -0.000 0.000 0.000 -0.002 -0.018 -0.008
100198.040 -0.000 0.000 0.000 -0.002 -0.018 -0.008
100198.050 -0.000 0.000 0.000 -0.002 -0.017 -0.008
100198.060 -0.000 0.000 0.000 -0.002 -0.017 -0.008
100198.070 -0.000 0.000 0.000 -0.002 -0.017 -0.008
100198.080 -0.000 0.000 0.000 -0.002 -0.017 -0.008
100198.090 -0.000 0.000 0.000 -0.002 -0.017 -0.008
100198.100 -0.000 0.000 0.000 -0.003 -0.017 -0.008
100198.110 -0.000 0.000 0.000 -0.003 -0.017 -0.008
100198.120 -0.000 0.000 0.000 -0.003 -0.017 -0.008
100198.130 -0.000 0.000 0.000 -0.003 -0.017 -0.008
100198.140 -0.000 0.000 0.000 -0.003 -0.017 -0.008
100198.150 -0.000 0.000 0.000 -0.003 -0.017 -0.008
100198.160 -0.000 0.000 0.000 -0.003 -0.017 -0.008
100198.170 -0.000 0.000 0.000 -0.003 -0.017 -0.008
100198.180 -0.000 0.000 0.000 -0.003 -0.017 -0.008
100198.190 -0.000 0.000 0.000 -0.003 -0.017 -0.008
100198.200 -0.000 0.000 0.000 -0.004 -0.016 -0.008
100198.210 -0.000 0.000 0.000 -0.004 -0.016 -0.008
100198.220 -0.000 0.000 0.000 -0.004 -0.016 -0.008
100198.230 -0.000 0.000 0.000 -0.004 -0.016 -0.008
100198.240 -0.000 0.000 0.000 -0.004 -0.016 -0.008
100198.250 -0.000 0.000 0.000 -0.004 -0.016 -0.009
100198.260 -0.000 0.000 0.000 -0.004 -0.016 -0.009
100198.270 -0.000 0.000 0.000 -0.004 -0.016 -0.009
100198.280 -0.000 0.000 0.000 -0.004 -0.016 -0.009
100198.290 -0.000 0.000 0.000 -0.004 -0.016 -0.009
100198.300 -0.000 0.000 0.000 -0.005 -0.015 -0.009
100198.310 -0.000 0.000 0.000 -0.005 -0.015 -0.009
100198.320 -0.000 0.000 0.000 -0.005 -0.015 -0.009
100198.330 -0.000 0.000 0.000 -0.005 -0.015 -0.009
100198.340 -0.000 0.000 0.000 -0.005 -0.015 -0.009
100198.350 -0.000 0.000 0.000 -0.005 -0.015 -0.009
100198.360 -0.000 0.000 0.000 -0.005 -0.015 -0.009
100198.370 -0.000 0.000 0.000 -0.005 -0.015 -0.009
100198.380 -0.000 0.000 0.000 -0.005 -0.015 -0.009
100198.390 -0.000 0.000 0.000 -0.005 -0.015 -0.009
100198.400 -0.000 0.000 0.000 -0.005 -0.014 -0.009
100198.410 -0.000 0.000 0.000 -0.005 -0.014 -0.009
100198.420 -0.000 0.000 0.000 -0.005 -0.014 -0.009
100198.430 -0.000 0.000 0.000 -0.005 -0.014 -0.009
100198.440 -0.000 0.000 0.000 -0.005 -0.014 -0.009
100198.450 -0.000 0.000 0.000 -0.006 -0.014 -0.009
100198.460 -0.000 0.000 0.000 -0.006 -0.014 -0.009
100198.470 -0.000 0.000 0.000 -0.006 -0.014 -0.009
100198.480 -0.000 0.000 0.000 -0.006 -0.014 -0.009
100198.490 -0.000 0.000 0.000 -0.006 -0.014 -0.009
100198.500 -0.000 0.000 0.000 -0.006 -0.014 -0.009
100198.510 -0.000 0.000 0.000 -0.006 -0.014 -0.009
100198.520 -0.000 0.000 0.000 -0.006 -0.014 -0.009
100198.530 -0.000 0.000 0.000 -0.006 -0.014 -0.009
100198.540 -0.000 0.000 0.000 -0.006 -0.014 -0.009
100198.550 -0.000 0.000 0.000 -0.006 -0.013 -0.010
100198.560 -0.000 0.000 0.000 -0.006 -0.013 -0.010
100198.570 -0.000 0.000 0.000 -0.006 -0.013 -0.010
100198.580 -0.000 0.000 0.000 -0.006 -0.013 -0.010
100198.590 -0.000 0.000 0.000 -0.006 -0.013 -0.010
100198.600 -0.000 0.000 0.000 -0.006 -0.013 -0.010
100198.610 -0.000 0.000 0.000 -0.006 -0.013 -0.010
100198.620 -0.000 0.000 0.000 -0.006 -0.013 -0.010
100198.630 -0.000 0.000 0.000 -0.006 -0.013 -0.010
100198.640 -0.000 0.000 0.000 -0.006 -0.013 -0.010
100198.650 -0.000 0.000 0.000 -0.007 -0.012 -0.010
100198.660 -0.000 0.000 0.000 -0.007 -0.012 -0.010
100198.670 -0.000 0.000 0.000 -0.007 -0.012 -0.010
100198.680 -0.000 0.000 0.000 -0.007 -0.012 -0.010
100198.690 -0.000 0.000 0.000 -0.007 -0.012 -0.010
100198.700 -0.000 0.000 0.000 -0.007 -0.012 -0.010
100198.710 -0.000 0.000 0.000 -0.007 -0.012 -0.010
100198.720 -0.000 0.000 0.000 -0.007 -0.012 -0.010
100198.730 -0.000 0.000 0.000 -0.007 -0.012 -0.010
100198.740 -0.000 0.000 0.000 -0.007 -0.012 -0.010
100198.750 -0.000 0.000 0.000 -0.007 -0.011 -0.010
100198.760 -0.000 0.000 0.000 -0.007 -0.011 -0.010
100198.770 -0.000 0.000 0.000 -0.007 -0.011 -0.010
100198.780 -0.000 0.000 0.000 -0.007 -0.011 -0.010
100198.790 -0.000 0.000 0.000 -0.007 -0.011 -0.010
100198.800 -0.000 0.000 0.000 -0.007 -0.011 -0.010
100198.810 -0.000 0.000 0.000 -0.007 -0.011 -0.010
100198.820 -0.000 0.000 0.000 -0.007 -0.011 -0.010
100198.830 -0.000 0.000 0.000 -0.007 -0.011 -0.010
100198.840 -0.000 0.000 0.000 -0.007 -0.011 -0.010
100198.850 -0.000 0.000 0.000 -0.007 -0.010 -0.010
100198.860 -0.000 0.000 0.000 -0.007 -0.010 -0.010
100198.870 -0.000 0.000 0.000 -0.007 -0.010 -0.010
100198.880 -0.000 0.000 0.000 -0.007 -0.010 -0.010
100198.890 -0.000 0.000 0.000 -0.007 -0.010 -0.010
100198.900 -0.000 0.000 0.000 -0.007 -0.009 -0.011
100198.910 -0.000 0.000 0.000 -0.007 -0.009 -0.011
100198.920 -0.000 0.000 0.000 -0.007 -0.009 -0.011
100198.930 -0.000 0.000 0.000 -0.007 -0.009 -0.011
100198.940 -0.000 0.000 0.000 -0.007 -0.009 -0.011
100198.950 -0.000 0.001 0.000 -0.007 -0.008 -0.011
100198.960 -0.000 0.001 0.000 -0.007 -0.008 -0.011
100198.970 -0.000 0.001 0.000 -0.007 -0.008 -0.011
100198.980 -0.000 0.001 0.000 -0.007 -0.008 -0.011
100198.990 -0.000 0.001 0.000 -0.007 -0.008 -0.011
100199.000 -0.000 0.001 0.000 -0.007 -0.007 -0.011
100199.010 -0.000 0.001 0.000 -0.007 -0.007 -0.011
100199.020 -0.000 0.001 0.000 -0.007 -0.007 -0.011
100199.030 -0.000 0.001 0.000 -0.007 -0.007 -0.011
100199.040 -0.000 0.001 0.000 -0.007 -0.007 -0.011
100199.050 -0.000 0.001 0.000 -0.007 -0.005 -0.011
100199.060 -0.000 0.001 0.000 -0.007 -0.005 -0.011
100199.070 -0.000 0.001 0.000 -0.007 -0.005 -0.011
100199.080 -0.000 0.001 0.000 -0.007 -0.005 -0.011
100199.090 -0.000 0.001 0.000 -0.007 -0.005 -0.011
100199.100 -0.000 0.001 0.000 -0.006 -0.005 -0.012
100199.110 -0.000 0.001 0.000 -0.006 -0.005 -0.012
100199.120 -0.000 0.001 0.000 -0.006 -0.005 -0.012
100199.130 -0.000 0.001 0.000 -0.006 -0.005 -0.012
100199.140 -0.000 0.001 0.000 -0.006 -0.005 -0.012
100199.150 -0.000 0.001 0.000 -0.005 -0.005 -0.011
100199.160 -0.000 0.001 0.000 -0.005 -0.005 -0.011
100199.170 -0.000 0.001 0.000 -0.005 -0.005 -0.011
100199.180 -0.000 0.001 0.000 -0.005 -0.005 -0.011
100199.190 -0.000 0.001 0.000 -0.005 -0.005 -0.011
100199.200 -0.000 0.001 0.000 -0.005 -0.005 -0.011
100199.210 -0.000 0.001 0.000 -0.005 -0.005 -0.011
100199.220 -0.000 0.001 0.000 -0.005 -0.005 -0.011
100199.230 -0.000 0.001 0.000 -0.005 -0.005 -0.011
100199.240 -0.000 0.001 0.000 -0.005 -0.005 -0.011
100199.250 -0.000 0.001 0.000 -0.004 -0.006 -0.011
100199.260 -0.000 0.001 0.000 -0.004 -0.006 -0.011
100199.270 -0.000 0.001 0.000 -0.004 -0.006 -0.011
100199.280 -0.000 0.001 0.000 -0.004 -0.006 -0.011
100199.290 -0.000 0.001 0.000 -0.004 -0.006 -0.011
100199.300 -0.000 0.001 0.000 -0.003 -0.007 -0.011
100199.310 -0.000 0.001 0.000 -0.003 -0.007 -0.011
100199.320 -0.000 0.001 0.000 -0.003 -0.007 -0.011
100199.330 -0.000 0.001 0.000 -0.003 -0.007 -0.011
100199.340 -0.000 0.001 0.000 -0.003 -0.007 -0.011
100199.350 -0.000 0.001 0.000 -0.003 -0.009 -0.010
100199.360 -0.000 0.001 0.000 -0.003 -0.009 -0.010
100199.370 -0.000 0.001 0.000 -0.003 -0.009 -0.010
100199.380 -0.000 0.001 0.000 -0.003 -0.009 -0.010
100199.390 -0.000 0.001 0.000 -0.003 -0.009 -0.010
100199.400 -0.000 0.001 0.000 -0.003 -0.010 -0.010
100199.410 -0.000 0.001 0.000 -0.003 -0.010 -0.010
100199.420 -0.000 0.001 0.000 -0.003 -0.010 -0.010
100199.430 -0.000 0.001 0.000 -0.003 -0.010 -0.010
100199.440 -0.000 0.001 0.000 -0.003 -0.010 -0.010
100199.450 -0.000 0.001 0.000 -0.004 -0.013 -0.009
100199.460 -0.000 0.001 0.000 -0.004 -0.013 -0.009
100199.470 -0.000 0.001 0.000 -0.004 -0.013 -0.009
100199.480 -0.000 0.001 0.000 -0.004 -0.013 -0.009
100199.490 -0.000 0.001 0.000 -0.004 -0.013 -0.009
100199.500 0.000 0.001 0.000 -0.005 -0.015 -0.009
100199.510 0.000 0.001 0.000 -0.005 -0.015 -0.009
100199.520 0.000 0.001 0.000 -0.005 -0.015 -0.009
100199.530 0.000 0.001 0.000 -0.005 -0.015 -0.009
100199.540 0.000 0.001 0.000 -0.005 -0.015 -0.009
100199.550 0.000 0.000 0.000 -0.007 -0.018 -0.009
100199.560 0.000 0.000 0.000 -0.007 -0.018 -0.009
100199.570 0.000 0.000 0.000 -0.007 -0.018 -0.009
100199.580 0.000 0.000 0.000 -0.007 -0.018 -0.009
100199.590 0.000 0.000 0.000 -0.007 -0.018 -0.009
100199.600 0.000 0.000 0.000 -0.008 -0.020 -0.008
100199.610 0.000 0.000 0.000 -0.008 -0.020 -0.008
100199.620 0.000 0.000 0.000 -0.008 -0.020 -0.008
100199.630 0.000 0.000 0.000 -0.008 -0.020 -0.008
100199.640 0.000 0.000 0.000 -0.008 -0.020 -0.008
100199.650 0.000 0.000 0.000 -0.009 -0.022 -0.008
100199.660 0.000 0.000 0.000 -0.009 -0.022 -0.008
100199.670 0.000 0.000 0.000 -0.009 -0.022 -0.008
100199.680 0.000 0.000 0.000 -0.009 -0.022 -0.008
100199.690 0.000 0.000 0.000 -0.009 -0.022 -0.008
100199.700 0.000 0.000 0.000 -0.010 -0.023 -0.008
100199.710 0.000 0.000 0.000 -0.010 -0.023 -0.008
100199.720 0.000 0.000 0.000 -0.010 -0.023 -0.008
100199.730 0.000 0.000 0.000 -0.010 -0.023 -0.008
100199.740 0.000 0.000 0.000 -0.010 -0.023 -0.008
100199.750 0.000 0.000 0.000 -0.010 -0.024 -0.007
100199.760 0.000 0.000 0.000 -0.010 -0.024 -0.007
100199.770 0.000 0.000 0.000 -0.010 -0.024 -0.007
100199.780 0.000 0.000 0.000 -0.010 -0.024 -0.007
100199.790 0.000 0.000 0.000 -0.010 -0.024 -0.007
100199.800 0.000 0.000 0.000 -0.011 -0.024 -0.007
100199.810 0.000 0.000 0.000 -0.011 -0.024 -0.007
100199.820 0.000 0.000 0.000 -0.011 -0.024 -0.007
100199.830 0.000 0.000 0.000 -0.011 -0.024 -0.007
100199.840 0.000 0.000 0.000 -0.011 -0.024 -0.007
100199.850 0.000 0.000 0.000 -0.011 -0.025 -0.007
100199.860 0.000 0.000 0.000 -0.011 -0.025 -0.007
100199.870 0.000 0.000 0.000 -0.011 -0.025 -0.007
100199.880 0.000 0.000 0.000 -0.011 -0.025 -0.007
100199.890 0.000 0.000 0.000 -0.011 -0.025 -0.007
100199.900 0.000 0.000 0.000 -0.011 -0.026 -0.007
100199.910 0.000 0.000 0.000 -0.011 -0.026 -0.007
100199.920 0.000 0.000 0.000 -0.011 -0.026 -0.007
100199.930 0.000 0.000 0.000 -0.011 -0.026 -0.007
100199.940 0.000 0.000 0.000 -0.011 -0.026 -0.007
100199.950 0.000 0.000 0.000 -0.011 -0.027 -0.007
100199.960 0.000 0.000 0.000 -0.011 -0.027 -0.007
100199.970 0.000 0.000 0.000 -0.011 -0.027 -0.007
100199.980 0.000 0.000 0.000 -0.011 -0.027 -0.007
100199.990 0.000 0.000 0.000 -0.011 -0.027 -0.007
